{"learner":{"attributes":{"scikit_learn":"{\"_estimator_type\": \"classifier\"}"},"feature_names":[],"feature_types":[],"gradient_booster":{"model":{"cats":{"enc":[],"feature_segments":[],"sorted_idx":[]},"gbtree_model_param":{"num_parallel_tree":"1","num_trees":"400"},"iteration_indptr":[0,4,8,12,16,20,24,28,32,36,40,44,48,52,56,60,64,68,72,76,80,84,88,92,96,100,104,108,112,116,120,124,128,132,136,140,144,148,152,156,160,164,168,172,176,180,184,188,192,196,200,204,208,212,216,220,224,228,232,236,240,244,248,252,256,260,264,268,272,276,280,284,288,292,296,300,304,308,312,316,320,324,328,332,336,340,344,348,352,356,360,364,368,372,376,380,384,388,392,396,400],"tree_info":[0,1,2,3,0,1,2,3,0,1,2,3,0,1,2,3,0,1,2,3,0,1,2,3,0,1,2,3,0,1,2,3,0,1,2,3,0,1,2,3,0,1,2,3,0,1,2,3,0,1,2,3,0,1,2,3,0,1,2,3,0,1,2,3,0,1,2,3,0,1,2,3,0,1,2,3,0,1,2,3,0,1,2,3,0,1,2,3,0,1,2,3,0,1,2,3,0,1,2,3,0,1,2,3,0,1,2,3,0,1,2,3,0,1,2,3,0,1,2,3,0,1,2,3,0,1,2,3,0,1,2,3,0,1,2,3,0,1,2,3,0,1,2,3,0,1,2,3,0,1,2,3,0,1,2,3,0,1,2,3,0,1,2,3,0,1,2,3,0,1,2,3,0,1,2,3,0,1,2,3,0,1,2,3,0,1,2,3,0,1,2,3,0,1,2,3,0,1,2,3,0,1,2,3,0,1,2,3,0,1,2,3,0,1,2,3,0,1,2,3,0,1,2,3,0,1,2,3,0,1,2,3,0,1,2,3,0,1,2,3,0,1,2,3,0,1,2,3,0,1,2,3,0,1,2,3,0,1,2,3,0,1,2,3,0,1,2,3,0,1,2,3,0,1,2,3,0,1,2,3,0,1,2,3,0,1,2,3,0,1,2,3,0,1,2,3,0,1,2,3,0,1,2,3,0,1,2,3,0,1,2,3,0,1,2,3,0,1,2,3,0,1,2,3,0,1,2,3,0,1,2,3,0,1,2,3,0,1,2,3,0,1,2,3,0,1,2,3,0,1,2,3,0,1,2,3,0,1,2,3,0,1,2,3,0,1,2,3,0,1,2,3,0,1,2,3,0,1,2,3,0,1,2,3,0,1,2,3,0,1,2,3,0,1,2,3,0,1,2,3],"trees":[{"base_weights":[7.1462123E-3,-2.8983328E-1,1.2768462E0,-4.6892586E-1,1.8886113E-1,1.8667632E-1,1.0155814E0,-5.9772384E-1,2.5636557E-1,4.6214786E-1,1.3549591E0,7.452988E-2,-6.346657E-2,4.1670266E-1,-3.9690625E-2,7.788049E-1,7.0227586E-2,8.669661E-2,1.4896995E-1,6.9936496E-1,-1.8665127E-2,9.568528E-2,4.0665578E-2,-2.8232917E-2,4.0665578E-2,8.4174976E-2,1.7699411E-2,1.7699411E-2,-1.3833641E-2],"categories":[],"categories_nodes":[],"categories_segments":[],"categories_sizes":[],"default_left":[0,0,0,0,0,0,0,0,0,0,0,0,0,0,0,0,0,0,0,0,0,0,0,0,0,0,0,0,0],"id":0,"left_children":[1,3,5,7,-1,-1,9,11,13,15,17,-1,-1,19,-1,21,23,-1,-1,25,27,-1,-1,-1,-1,-1,-1,-1,-1],"loss_changes":[9.392048E1,7.964821E1,5.380974E0,1.7654385E1,0E0,0E0,5.931652E0,8.381165E0,3.1979244E0,1.7807617E0,9.752655E-2,0E0,0E0,2.9338384E0,0E0,1.4635086E-1,1.0291117E0,0E0,0E0,9.233122E-1,2.660624E-1,0E0,0E0,0E0,0E0,0E0,0E0,0E0,0E0],"parents":[2147483647,0,0,1,1,2,2,3,3,6,6,7,7,8,8,9,9,10,10,13,13,15,15,16,16,19,19,20,20],"right_children":[2,4,6,8,-1,-1,10,12,14,16,18,-1,-1,20,-1,22,24,-1,-1,26,28,-1,-1,-1,-1,-1,-1,-1,-1],"split_conditions":[1E0,1E0,7.418032E-1,1E0,1.8886113E-1,1.8667632E-1,8.526788E-1,6.1449695E-1,7.742293E-1,7.878025E-1,3E-2,7.452988E-2,-6.346657E-2,5E-2,-3.9690625E-2,7.2859067E-1,7.292884E-1,8.669661E-2,1.4896995E-1,9.101802E-1,7.5412816E-1,9.568528E-2,4.0665578E-2,-2.8232917E-2,4.0665578E-2,8.4174976E-2,1.7699411E-2,1.7699411E-2,-1.3833641E-2],"split_indices":[11,13,10,9,0,0,10,10,16,10,18,0,0,15,0,16,16,0,0,10,10,0,0,0,0,0,0,0,0],"split_type":[0,0,0,0,0,0,0,0,0,0,0,0,0,0,0,0,0,0,0,0,0,0,0,0,0,0,0,0,0],"sum_hessian":[2.4709506E2,2.0088121E2,4.621386E1,1.863462E2,1.4535004E1,1.2298849E1,3.391501E1,1.5839427E2,2.7951931E1,1.3789619E1,2.012539E1,3.726924E0,1.5466734E2,2.2734238E1,5.217694E0,7.081156E0,6.708463E0,5.9630785E0,1.4162312E1,1.3416926E1,9.31731E0,3.726924E0,3.3542316E0,3.3542316E0,3.3542316E0,1.0062695E1,3.3542316E0,3.3542316E0,5.9630785E0],"tree_param":{"num_deleted":"0","num_feature":"22","num_nodes":"29","size_leaf_vector":"1"}},{"base_weights":[1.5126678E-1,3.47195E-1,-6.6853516E-2,5.285119E-1,-6.609384E-2,6.922129E-1,-3.164077E-1,7.5320864E-1,-5.8839362E-2,3.5260376E-2,-4.2199343E-1,7.868739E-1,-3.400911E-2,-3.234611E-1,-5.975316E-2,1.0065905E-1,6.505554E-2,-3.8000602E-2,-3.3271038E-3],"categories":[],"categories_nodes":[],"categories_segments":[],"categories_sizes":[],"default_left":[0,0,0,0,0,0,0,0,0,0,0,0,0,0,0,0,0,0,0],"id":1,"left_children":[1,3,-1,5,-1,7,9,11,-1,-1,13,15,-1,17,-1,-1,-1,-1,-1],"loss_changes":[4.121432E1,3.8111923E1,0E0,2.4514214E1,0E0,1.1961304E1,2.211073E0,5.4643326E0,0E0,0E0,2.507248E-1,3.4567566E0,0E0,2.9291868E-1,0E0,0E0,0E0,0E0,0E0],"parents":[2147483647,0,0,1,1,3,3,5,5,6,6,7,7,10,10,11,11,13,13],"right_children":[2,4,-1,6,-1,8,10,12,-1,-1,14,16,-1,18,-1,-1,-1,-1,-1],"split_conditions":[1E0,1E0,-6.6853516E-2,1E0,-6.609384E-2,1E0,1E0,3.6E-1,-5.8839362E-2,3.5260376E-2,1E-1,2E-2,-3.400911E-2,7E-2,-5.975316E-2,1.0065905E-1,6.505554E-2,-3.8000602E-2,-3.3271038E-3],"split_indices":[9,11,0,1,0,13,17,18,0,0,18,15,0,18,0,0,0,0,0],"split_type":[0,0,0,0,0,0,0,0,0,0,0,0,0,0,0,0,0,0,0],"sum_hessian":[2.5414638E2,2.0558836E2,4.8558014E1,1.746522E2,3.0936153E1,1.4645723E2,2.8194975E1,1.4019168E2,6.26555E0,3.5243719E0,2.4670603E1,1.3627571E2,3.915969E0,1.762186E1,7.0487437E0,4.9732803E1,8.654291E1,1.4489084E1,3.132775E0],"tree_param":{"num_deleted":"0","num_feature":"22","num_nodes":"19","size_leaf_vector":"1"}},{"base_weights":[-8.341543E-2,1.1937611E-1,-6.481557E-2,2.6072112E-1,-6.3529015E-2,3.8454765E-1,-6.23643E-2,4.3568522E-1,-5.6718063E-2,3.5166013E-1,9.180971E-1,2.4215665E-2,6.3561305E-2,1.9444881E-2,1.0649154E-1],"categories":[],"categories_nodes":[],"categories_segments":[],"categories_sizes":[],"default_left":[0,0,0,0,0,0,0,0,0,0,0,0,0,0,0],"id":2,"left_children":[1,3,-1,5,-1,7,-1,9,-1,11,13,-1,-1,-1,-1],"loss_changes":[2.7691975E1,1.9180365E1,0E0,1.6758953E1,0E0,6.717186E0,0E0,4.81398E0,0E0,3.2523832E0,1.724225E0,0E0,0E0,0E0,0E0],"parents":[2147483647,0,0,1,1,3,3,5,5,7,7,9,9,10,10],"right_children":[2,4,-1,6,-1,8,-1,10,-1,12,14,-1,-1,-1,-1],"split_conditions":[1E0,1E0,-6.481557E-2,1E0,-6.3529015E-2,1E0,-6.23643E-2,1E-1,-5.6718063E-2,9.026775E-1,3E-2,2.4215665E-2,6.3561305E-2,1.9444881E-2,1.0649154E-1],"split_indices":[1,11,0,9,0,13,0,15,0,10,18,0,0,0,0],"split_type":[0,0,0,0,0,0,0,0,0,0,0,0,0,0,0],"sum_hessian":[2.4012383E2,1.7726036E2,6.286347E1,1.4984897E2,2.7411396E1,1.3194019E2,1.790878E1,1.2572694E2,6.2132497E0,1.08549126E2,1.7177809E1,7.967579E1,2.8873337E1,3.2893674E0,1.3888441E1],"tree_param":{"num_deleted":"0","num_feature":"22","num_nodes":"15","size_leaf_vector":"1"}},{"base_weights":[-3.2617994E-2,-6.050306E-1,1.6157515E0,-6.576194E-2,-2.996521E-1,8.811321E-2,1.6740471E-1,-9.25533E-2,-6.0526695E-2,1.4656496E-1,-5.6059398E-2,-1.5238031E-2,3.8040414E-2,-3.335683E-2,3.3138983E-2],"categories":[],"categories_nodes":[],"categories_segments":[],"categories_sizes":[],"default_left":[0,0,0,0,0,0,0,0,0,0,0,0,0,0,0],"id":3,"left_children":[1,3,5,-1,7,-1,-1,9,-1,11,-1,13,-1,-1,-1],"loss_changes":[2.38925E2,2.8206863E0,1.3202667E0,0E0,1.8074925E0,0E0,0E0,2.17844E0,0E0,5.048444E-1,0E0,1.0768235E0,0E0,0E0,0E0],"parents":[2147483647,0,0,1,1,2,2,4,4,7,7,9,9,11,11],"right_children":[2,4,6,-1,8,-1,-1,10,-1,12,-1,14,-1,-1,-1],"split_conditions":[1E0,1E0,5.25559E-1,-6.576194E-2,1E0,8.811321E-2,1.6740471E-1,1E0,-6.0526695E-2,8.787613E-1,-5.6059398E-2,6E-2,3.8040414E-2,-3.335683E-2,3.3138983E-2],"split_indices":[1,9,16,0,11,0,0,13,0,10,0,18,0,0,0],"split_type":[0,0,0,0,0,0,0,0,0,0,0,0,0,0,0],"sum_hessian":[2.5118382E2,1.8691032E2,6.4273506E1,1.5846744E2,2.8442875E1,5.9102077E0,5.83633E1,1.7730623E1,1.0712252E1,1.2189803E1,5.5408196E0,7.757148E0,4.432656E0,4.0632677E0,3.6938798E0],"tree_param":{"num_deleted":"0","num_feature":"22","num_nodes":"15","size_leaf_vector":"1"}},{"base_weights":[-2.354726E-2,-3.0361676E-1,1.1111636E0,-4.5654646E-1,1.584081E-1,1.6774003E-1,3.105164E-2,-5.773468E-1,2.006019E-1,9.126625E-2,-2.2087847E-1,1.2137891E-1,-6.210658E-2,1.2381791E0,-6.2647365E-2,-5.345764E-2,-5.4413524E-2,1.4658692E-1,5.193873E-2,-3.9869215E-2,3.412476E-2],"categories":[],"categories_nodes":[],"categories_segments":[],"categories_sizes":[],"default_left":[0,0,0,0,0,0,0,0,0,0,0,0,0,0,0,0,0,0,0,0,0],"id":4,"left_children":[1,3,5,7,-1,-1,9,11,13,-1,15,-1,-1,17,-1,19,-1,-1,-1,-1,-1],"loss_changes":[7.886741E1,5.816434E1,2.9996872E1,1.4789082E1,0E0,0E0,4.1810308E0,1.300066E1,2.6043322E1,0E0,7.686438E-1,0E0,0E0,1.4310684E0,0E0,1.6104038E0,0E0,0E0,0E0,0E0,0E0],"parents":[2147483647,0,0,1,1,2,2,3,3,6,6,7,7,8,8,10,10,13,13,15,15],"right_children":[2,4,6,8,-1,-1,10,12,14,-1,16,-1,-1,18,-1,20,-1,-1,-1,-1,-1],"split_conditions":[1E0,1E0,1E0,1E0,1.584081E-1,1.6774003E-1,7.470323E-1,5.9170073E-1,1E0,9.126625E-2,8.9729285E-1,1.2137891E-1,-6.210658E-2,9.101802E-1,-6.2647365E-2,8.288876E-1,-5.4413524E-2,1.4658692E-1,5.193873E-2,-3.9869215E-2,3.412476E-2],"split_indices":[11,13,1,9,0,0,10,10,1,0,10,0,0,10,0,10,0,0,0,0,0],"split_type":[0,0,0,0,0,0,0,0,0,0,0,0,0,0,0,0,0,0,0,0,0],"sum_hessian":[2.4610686E2,1.9797505E2,4.81318E1,1.8383965E2,1.4135414E1,3.12148E1,1.6917002E1,1.553955E2,2.8444149E1,3.1769207E0,1.3740082E1,3.0649123E0,1.5233058E2,1.2396065E1,1.6048084E1,9.819663E0,3.9204185E0,8.62469E0,3.7713752E0,5.2327037E0,4.5869594E0],"tree_param":{"num_deleted":"0","num_feature":"22","num_nodes":"21","size_leaf_vector":"1"}},{"base_weights":[1.2281845E-1,3.027539E-1,-6.532006E-2,4.878776E-1,-4.3149874E-1,5.5584794E-1,-6.059381E-2,-5.3381485E-1,-3.3689627E-1,-5.7691433E-2,5.956831E-1,-2.5210172E-2,-5.692449E-1,-5.9306014E-2,-1.9897695E-1,6.951102E-1,3.033481E-1,-6.193122E-2,-2.5730228E-2,3.205795E-2,-4.583694E-1,9.5582984E-2,5.561774E-2,4.14168E-3,7.543909E-2,-5.993439E-2,-5.5740494E-4],"categories":[],"categories_nodes":[],"categories_segments":[],"categories_sizes":[],"default_left":[0,0,0,0,0,0,0,0,0,0,0,0,0,0,0,0,0,0,0,0,0,0,0,0,0,0,0],"id":5,"left_children":[1,3,-1,5,7,9,-1,11,13,-1,15,-1,17,-1,19,21,23,-1,-1,-1,25,-1,-1,-1,-1,-1,-1],"loss_changes":[3.7915176E1,3.0108847E1,0E0,1.3432064E1,2.539978E-1,7.850151E0,0E0,5.4335117E-2,8.005433E-1,0E0,4.4744186E0,0E0,1.0322857E-1,0E0,2.6273685E0,3.797329E0,5.0116014E0,0E0,0E0,0E0,8.0654407E-1,0E0,0E0,0E0,0E0,0E0,0E0],"parents":[2147483647,0,0,1,1,3,3,4,4,5,5,7,7,8,8,10,10,12,12,14,14,15,15,16,16,20,20],"right_children":[2,4,-1,6,8,10,-1,12,14,-1,16,-1,18,-1,20,22,24,-1,-1,-1,26,-1,-1,-1,-1,-1,-1],"split_conditions":[1E0,1E0,-6.532006E-2,1E0,3E-2,6.0627997E-1,-6.059381E-2,5.6598705E-1,5.6598705E-1,-5.7691433E-2,9.037341E-1,-2.5210172E-2,8.008204E-1,-5.9306014E-2,6.9739103E-1,2E-2,7.580088E-1,-6.193122E-2,-2.5730228E-2,3.205795E-2,8.926871E-1,9.5582984E-2,5.561774E-2,4.14168E-3,7.543909E-2,-5.993439E-2,-5.5740494E-4],"split_indices":[9,1,0,13,15,10,0,16,16,0,10,0,16,0,16,15,16,0,0,0,10,0,0,0,0,0,0],"split_type":[0,0,0,0,0,0,0,0,0,0,0,0,0,0,0,0,0,0,0,0,0,0,0,0,0,0,0],"sum_hessian":[2.691176E2,2.1895778E2,5.015985E1,1.7513687E2,4.3820908E1,1.6535353E2,9.783339E0,1.8821754E1,2.4999151E1,5.159318E0,1.6019421E2,3.0093274E0,1.58124275E1,7.5941453E0,1.7405006E1,1.1850968E2,4.1684532E1,1.2776447E1,3.0359797E0,5.7173715E0,1.1687634E1,3.915399E1,7.935569E1,2.7061245E1,1.4623285E1,8.665913E0,3.0217218E0],"tree_param":{"num_deleted":"0","num_feature":"22","num_nodes":"27","size_leaf_vector":"1"}},{"base_weights":[-8.684485E-2,8.7985985E-2,-6.319404E-2,2.1744046E-1,-6.25033E-2,3.2282212E-1,-6.122305E-2,1.3884816E-1,4.745396E-1,3.7320942E-1,5.3377047E-2,5.9626955E-1,6.785919E-2,2.7547884E-3,8.69795E-2,-3.218179E-2,1.5588996E-2,4.8797473E-2,1.05880134E-1,5.962466E-2,-3.3911403E-2],"categories":[],"categories_nodes":[],"categories_segments":[],"categories_sizes":[],"default_left":[0,0,0,0,0,0,0,0,0,0,0,0,0,0,0,0,0,0,0,0,0],"id":6,"left_children":[1,3,-1,5,-1,7,-1,9,11,13,15,17,19,-1,-1,-1,-1,-1,-1,-1,-1],"loss_changes":[2.3049175E1,1.7079298E1,0E0,1.3845579E1,0E0,3.8183517E0,0E0,1.2682333E0,3.7146187E0,2.8972743E0,1.9074808E0,2.4010487E0,4.202471E0,0E0,0E0,0E0,0E0,0E0,0E0,0E0,0E0],"parents":[2147483647,0,0,1,1,3,3,5,5,7,7,8,8,9,9,10,10,11,11,12,12],"right_children":[2,4,-1,6,-1,8,-1,10,12,14,16,18,20,-1,-1,-1,-1,-1,-1,-1,-1],"split_conditions":[1E0,1E0,-6.319404E-2,1E0,-6.25033E-2,3E-2,-6.122305E-2,6.222651E-1,7.923831E-1,5.798072E-1,6.868084E-1,1.1E-1,6E-2,2.7547884E-3,8.69795E-2,-3.218179E-2,1.5588996E-2,4.8797473E-2,1.05880134E-1,5.962466E-2,-3.3911403E-2],"split_indices":[1,11,0,9,0,15,0,16,16,16,16,15,15,0,0,0,0,0,0,0,0],"split_type":[0,0,0,0,0,0,0,0,0,0,0,0,0,0,0,0,0,0,0,0,0],"sum_hessian":[2.4027695E2,1.8256172E2,5.7715225E1,1.5509753E2,2.7464191E1,1.381599E2,1.6937645E1,6.3307644E1,7.485225E1,1.6018503E1,4.7289143E1,5.7249737E1,1.760251E1,1.006675E1,5.9517536E0,9.688857E0,3.7600285E1,4.80537E1,9.196039E0,7.456457E0,1.0146052E1],"tree_param":{"num_deleted":"0","num_feature":"22","num_nodes":"21","size_leaf_vector":"1"}},{"base_weights":[-5.5657495E-2,-5.953628E-1,1.3334366E0,-6.439367E-2,-3.5750315E-1,1.4259418E0,1.0201032E0,-5.478301E-1,-1.7601651E-1,1.5621226E-1,1.0636493E0,7.4395967E-1,1.2031784E-1,-6.028386E-2,-2.6350642E-2,2.6564963E-2,-5.4843087E-2,6.0161805E-1,1.3498525E-1,3.6186863E-2,9.706645E-2,2.567593E-1,-4.939602E-2,1.042034E-1,-6.0752425E-3,-5.4261545E-3,4.4042695E-2],"categories":[],"categories_nodes":[],"categories_segments":[],"categories_sizes":[],"default_left":[0,0,0,0,0,0,0,0,0,0,0,0,0,0,0,0,0,0,0,0,0,0,0,0,0,0,0],"id":7,"left_children":[1,3,5,-1,7,9,11,13,15,-1,17,19,-1,-1,-1,21,-1,23,-1,-1,-1,25,-1,-1,-1,-1,-1],"loss_changes":[1.8296812E2,1.7997093E0,5.251312E-1,0E0,1.0103793E0,8.1617737E-1,6.9581985E-2,7.836199E-2,1.3631792E0,0E0,1.4165573E0,5.346689E-1,0E0,0E0,0E0,1.6283766E0,0E0,2.4701862E0,0E0,0E0,0E0,5.578362E-1,0E0,0E0,0E0,0E0,0E0],"parents":[2147483647,0,0,1,1,2,2,4,4,5,5,6,6,7,7,8,8,10,10,11,11,15,15,17,17,21,21],"right_children":[2,4,6,-1,8,10,12,14,16,-1,18,20,-1,-1,-1,22,-1,24,-1,-1,-1,26,-1,-1,-1,-1,-1],"split_conditions":[1E0,1E0,1E0,-6.439367E-2,3E-2,1E0,1E0,7.750026E-1,1E0,1.5621226E-1,6.598144E-1,1E0,1.2031784E-1,-6.028386E-2,-2.6350642E-2,1E0,-5.4843087E-2,5.5575126E-1,1.3498525E-1,3.6186863E-2,9.706645E-2,6E-2,-4.939602E-2,1.042034E-1,-6.0752425E-3,-5.4261545E-3,4.4042695E-2],"split_indices":[1,9,11,0,15,8,12,16,11,0,16,7,0,0,0,13,0,16,0,0,0,18,0,0,0,0,0],"split_type":[0,0,0,0,0,0,0,0,0,0,0,0,0,0,0,0,0,0,0,0,0,0,0,0,0,0,0],"sum_hessian":[2.4199573E2,1.7469342E2,6.730231E1,1.4365091E2,3.1042519E1,4.9220184E1,1.808212E1,1.4166933E1,1.6875586E1,3.3366432E1,1.585375E1,9.227462E0,8.854659E0,1.0931708E1,3.235225E0,1.1531492E1,5.344094E0,7.2506914E0,8.603058E0,4.4029264E0,4.8245354E0,8.346923E0,3.1845696E0,4.0107317E0,3.23996E0,3.3606315E0,4.9862914E0],"tree_param":{"num_deleted":"0","num_feature":"22","num_nodes":"27","size_leaf_vector":"1"}},{"base_weights":[7.1346113E-3,-2.3645158E-1,9.9820703E-1,-4.2133993E-1,1.4053279E-1,1.4552191E-1,1.0399428E-1,6.219881E-1,-4.8329893E-1,7.37107E-2,-1.1660758E-1,1.3255952E-1,-5.224776E-2,-3.9770988E-1,-5.90201E-2,-3.050741E-1,3.028943E-2,-3.1178874E-1,-6.199878E-2,2.3383701E-2,-5.726881E-2,-1.5101519E-2,-4.827324E-2],"categories":[],"categories_nodes":[],"categories_segments":[],"categories_sizes":[],"default_left":[0,0,0,0,0,0,0,0,0,0,0,0,0,0,0,0,0,0,0,0,0,0,0],"id":8,"left_children":[1,3,5,7,-1,-1,9,11,13,-1,15,-1,-1,17,-1,19,-1,21,-1,-1,-1,-1,-1],"loss_changes":[5.94621E1,6.0615025E1,1.9707054E1,1.1839102E1,0E0,0E0,2.531807E0,9.101938E0,1.312027E0,0E0,1.1874471E0,0E0,0E0,1.6582909E0,0E0,1.58406E0,0E0,1.9040723E0,0E0,0E0,0E0,0E0,0E0],"parents":[2147483647,0,0,1,1,2,2,3,3,6,6,7,7,8,8,10,10,13,13,15,15,17,17],"right_children":[2,4,6,8,-1,-1,10,12,14,-1,16,-1,-1,18,-1,20,-1,22,-1,-1,-1,-1,-1],"split_conditions":[1E0,1E0,1E0,6.0627997E-1,1.4053279E-1,1.4552191E-1,7.5126874E-1,1E0,1E0,7.37107E-2,7.4051523E-1,1.3255952E-1,-5.224776E-2,1E0,-5.90201E-2,5.5745536E-1,3.028943E-2,6.8204546E-1,-6.199878E-2,2.3383701E-2,-5.726881E-2,-1.5101519E-2,-4.827324E-2],"split_indices":[11,13,1,10,0,0,10,1,8,0,16,0,0,1,0,16,0,16,0,0,0,0,0],"split_type":[0,0,0,0,0,0,0,0,0,0,0,0,0,0,0,0,0,0,0,0,0,0,0],"sum_hessian":[2.4433238E2,1.9673917E2,4.7593216E1,1.774941E2,1.9245062E1,3.1081026E1,1.6512188E1,9.443093E0,1.6805101E2,3.6617787E0,1.2850409E1,5.749864E0,3.6932294E0,9.5950455E1,7.2100555E1,9.055074E0,3.7953358E0,7.093381E1,2.5016645E1,3.0464537E0,6.00862E0,3.7524868E1,3.340894E1],"tree_param":{"num_deleted":"0","num_feature":"22","num_nodes":"23","size_leaf_vector":"1"}},{"base_weights":[1.1246597E-1,2.7150533E-1,-6.374236E-2,4.3041515E-1,-6.414619E-2,5.773474E-1,-3.207825E-1,6.3544357E-1,-5.6776423E-2,-2.412934E-1,-5.6482673E-2,8.238644E-1,5.250869E-1,-3.077468E-1,1.12419715E-2,9.064364E-2,6.2741645E-2,5.5673476E-2,-2.9634615E-2,-3.9533224E-2,4.880094E-3],"categories":[],"categories_nodes":[],"categories_segments":[],"categories_sizes":[],"default_left":[0,0,0,0,0,0,0,0,0,0,0,0,0,0,0,0,0,0,0,0,0],"id":9,"left_children":[1,3,-1,5,-1,7,9,11,-1,13,-1,15,17,19,-1,-1,-1,-1,-1,-1,-1],"loss_changes":[3.1528526E1,3.1846966E1,0E0,2.070921E1,0E0,1.073122E1,4.6630716E-1,2.6620827E0,0E0,6.264005E-1,0E0,2.9447937E-1,2.6766472E0,6.895418E-1,0E0,0E0,0E0,0E0,0E0,0E0,0E0],"parents":[2147483647,0,0,1,1,3,3,5,5,6,6,7,7,9,9,11,11,12,12,13,13],"right_children":[2,4,-1,6,-1,8,10,12,-1,14,-1,16,18,20,-1,-1,-1,-1,-1,-1,-1],"split_conditions":[1E0,1E0,-6.374236E-2,1E0,-6.414619E-2,1E0,1.4E-1,2E-2,-5.6776423E-2,9E-2,-5.6482673E-2,1E0,3.4E-1,7E-2,1.12419715E-2,9.064364E-2,6.2741645E-2,5.5673476E-2,-2.9634615E-2,-3.9533224E-2,4.880094E-3],"split_indices":[9,11,0,1,0,13,18,15,0,18,0,12,18,15,0,0,0,0,0,0,0],"split_type":[0,0,0,0,0,0,0,0,0,0,0,0,0,0,0,0,0,0,0,0,0],"sum_hessian":[2.6191257E2,2.1661086E2,4.5301693E1,1.8494768E2,3.1663187E1,1.5488417E2,3.0063501E1,1.4782928E2,7.0548954E0,2.41773E1,5.8862033E0,5.2214233E1,9.561504E1,2.0462824E1,3.7144742E0,3.421759E1,1.7996643E1,9.2378174E1,3.2368693E0,1.634012E1,4.1227045E0],"tree_param":{"num_deleted":"0","num_feature":"22","num_nodes":"21","size_leaf_vector":"1"}},{"base_weights":[-4.1634534E-2,1.3095032E-1,-6.1980683E-2,2.5931594E-1,-6.132939E-2,3.09662E-1,-5.7753522E-2,2.1692908E-1,7.168513E-1,-4.6191495E-2,2.632301E-1,9.870138E-1,2.4296999E-1,5.5500876E-2,2.0548018E-2,4.837365E-2,1.3644086E-1,-1.8777797E-3,4.166301E-2],"categories":[],"categories_nodes":[],"categories_segments":[],"categories_sizes":[],"default_left":[0,0,0,0,0,0,0,0,0,0,0,0,0,0,0,0,0,0,0],"id":10,"left_children":[1,3,-1,5,-1,7,-1,9,11,-1,13,15,17,-1,-1,-1,-1,-1,-1],"loss_changes":[2.4824091E1,1.8481619E1,0E0,7.100237E0,0E0,5.7201834E0,0E0,4.1503243E0,3.3999777E0,0E0,1.9185839E0,2.7171478E0,5.3735816E-1,0E0,0E0,0E0,0E0,0E0,0E0],"parents":[2147483647,0,0,1,1,3,3,5,5,7,7,8,8,10,10,11,11,12,12],"right_children":[2,4,-1,6,-1,8,-1,10,12,-1,14,16,18,-1,-1,-1,-1,-1,-1],"split_conditions":[1E0,1E0,-6.1980683E-2,1E0,-6.132939E-2,9.545194E-1,-5.7753522E-2,6.168785E-1,6.9883054E-1,-4.6191495E-2,6.825719E-1,1E0,3E-2,5.5500876E-2,2.0548018E-2,4.837365E-2,1.3644086E-1,-1.8777797E-3,4.166301E-2],"split_indices":[1,9,0,13,0,10,0,10,16,0,10,7,15,0,0,0,0,0,0],"split_type":[0,0,0,0,0,0,0,0,0,0,0,0,0,0,0,0,0,0,0],"sum_hessian":[2.4696544E2,1.9078847E2,5.6176983E1,1.6327817E2,2.7510294E1,1.5460678E2,8.671382E0,1.2717647E2,2.7430319E1,7.5471573E0,1.1962931E2,1.6780706E1,1.06496105E1,1.8342772E1,1.0128654E2,8.168854E0,8.611854E0,4.6032577E0,6.0463533E0],"tree_param":{"num_deleted":"0","num_feature":"22","num_nodes":"19","size_leaf_vector":"1"}},{"base_weights":[-4.2676292E-2,-5.9239393E-1,1.2050108E0,-6.316774E-2,-3.7782913E-1,6.7561674E-1,1.2486712E-1,-5.2459145E-1,8.6749695E-2,1.5138157E-2,1.0362711E-1,-2.5110075E-2,-5.581571E-1,-2.874804E-2,4.870389E-2,-6.0531408E-2,-2.5374612E-2],"categories":[],"categories_nodes":[],"categories_segments":[],"categories_sizes":[],"default_left":[0,0,0,0,0,0,0,0,0,0,0,0,0,0,0,0,0],"id":11,"left_children":[1,3,5,-1,7,9,-1,11,13,-1,-1,-1,15,-1,-1,-1,-1],"loss_changes":[1.6267406E2,1.1486092E0,8.332596E-1,0E0,1.9517944E0,1.3001666E0,0E0,5.6190968E-2,1.2740011E0,0E0,0E0,0E0,1.0813618E-1,0E0,0E0,0E0,0E0],"parents":[2147483647,0,0,1,1,2,2,4,4,5,5,7,7,8,8,12,12],"right_children":[2,4,6,-1,8,10,-1,12,14,-1,-1,-1,16,-1,-1,-1,-1],"split_conditions":[1E0,1E0,5.25559E-1,-6.316774E-2,9E-2,4E-2,1.2486712E-1,5.3891045E-1,1E-1,1.5138157E-2,1.0362711E-1,-2.5110075E-2,8.18382E-1,-2.874804E-2,4.870389E-2,-6.0531408E-2,-2.5374612E-2],"split_indices":[1,9,16,0,15,15,0,16,18,0,0,0,16,0,0,0,0],"split_type":[0,0,0,0,0,0,0,0,0,0,0,0,0,0,0,0,0],"sum_hessian":[2.3513643E2,1.6358696E2,7.154947E1,1.3662843E2,2.6958523E1,6.7064433E0,6.4843025E1,2.038853E1,6.5699935E0,3.3119879E0,3.3944554E0,3.1558418E0,1.7232689E1,3.5411725E0,3.028821E0,1.4065322E1,3.1673665E0],"tree_param":{"num_deleted":"0","num_feature":"22","num_nodes":"17","size_leaf_vector":"1"}},{"base_weights":[-1.0341365E-2,-2.7846307E-1,8.56474E-1,-4.205876E-1,1.2282093E-1,1.2612803E-1,6.6312367E-1,-5.527535E-1,1.9516839E-1,3.6919084E-1,8.554205E-1,8.292302E-2,-6.0483813E-2,8.3159E-2,9.3722396E-2,1.7921314E-1,7.301051E-2,9.943829E-1,5.7201695E-1,2.7243024E-1,-3.545014E-1,-4.5521226E-2,5.0721575E-2,4.392234E-2,1.14592314E-1,8.681341E-2,1.4470972E-2,5.7870653E-2,-2.3418464E-2,-5.304706E-2,-3.0985598E-3,3.257769E-2,-5.0810944E-2],"categories":[],"categories_nodes":[],"categories_segments":[],"categories_sizes":[],"default_left":[0,0,0,0,0,0,0,0,0,0,0,0,0,0,0,0,0,0,0,0,0,0,0,0,0,0,0,0,0,0,0,0,0],"id":12,"left_children":[1,3,5,7,-1,-1,9,11,13,15,17,-1,-1,19,-1,21,-1,23,25,27,29,31,-1,-1,-1,-1,-1,-1,-1,-1,-1,-1,-1],"loss_changes":[5.7645706E1,4.1075302E1,3.7501297E0,1.4254133E1,0E0,0E0,2.0448933E0,1.0821304E1,2.5365868E0,1.1223366E0,3.9562225E-1,0E0,0E0,2.451442E0,0E0,1.0034387E0,0E0,7.6513195E-1,1.1917529E0,3.3025668E0,4.9688697E-1,1.6786768E0,0E0,0E0,0E0,0E0,0E0,0E0,0E0,0E0,0E0,0E0,0E0],"parents":[2147483647,0,0,1,1,2,2,3,3,6,6,7,7,8,8,9,9,10,10,13,13,15,15,17,17,18,18,19,19,20,20,21,21],"right_children":[2,4,6,8,-1,-1,10,12,14,16,18,-1,-1,20,-1,22,-1,24,26,28,30,32,-1,-1,-1,-1,-1,-1,-1,-1,-1,-1,-1],"split_conditions":[1E0,1E0,7.418032E-1,1E0,1.2282093E-1,1.2612803E-1,8.526788E-1,5.9170073E-1,1E0,1E0,1E0,8.292302E-2,-6.0483813E-2,6.9883054E-1,9.3722396E-2,4E-2,7.301051E-2,8.9729285E-1,9.349418E-1,1E0,1.5E-1,7.7806616E-1,5.0721575E-2,4.392234E-2,1.14592314E-1,8.681341E-2,1.4470972E-2,5.7870653E-2,-2.3418464E-2,-5.304706E-2,-3.0985598E-3,3.257769E-2,-5.0810944E-2],"split_indices":[11,13,10,9,0,0,10,10,4,9,12,0,0,16,0,15,0,10,10,12,18,10,0,0,0,0,0,0,0,0,0,0,0],"split_type":[0,0,0,0,0,0,0,0,0,0,0,0,0,0,0,0,0,0,0,0,0,0,0,0,0,0,0,0,0,0,0,0,0],"sum_hessian":[2.4600623E2,1.8840721E2,5.759902E1,1.7282542E2,1.5581788E1,1.6833147E1,4.076587E1,1.4236954E2,3.0455889E1,1.7277094E1,2.3488777E1,4.6288705E0,1.3774066E2,2.7427862E1,3.0280266E0,1.2299465E1,4.977628E0,1.4077418E1,9.411359E0,1.941092E1,8.016944E0,7.809751E0,4.489714E0,3.8546195E0,1.0222798E1,4.949674E0,4.461684E0,1.2008703E1,7.4022164E0,4.778228E0,3.238716E0,4.4964285E0,3.3133225E0],"tree_param":{"num_deleted":"0","num_feature":"22","num_nodes":"33","size_leaf_vector":"1"}},{"base_weights":[9.3027E-2,2.3715629E-1,-6.252924E-2,3.6398783E-1,-6.224062E-2,4.8550132E-1,-2.7957904E-1,-5.4678172E-2,5.147831E-1,4.8090298E-2,-3.798805E-1,6.093932E-1,1.634131E-1,-5.3142693E-2,-2.1669847E-1,8.035069E-2,4.1422773E-2,8.624574E-2,4.7909166E-3,4.450938E-3,-5.5323284E-2],"categories":[],"categories_nodes":[],"categories_segments":[],"categories_sizes":[],"default_left":[0,0,0,0,0,0,0,0,0,0,0,0,0,0,0,0,0,0,0,0,0],"id":13,"left_children":[1,3,-1,5,-1,7,9,-1,11,-1,13,15,17,-1,19,-1,-1,-1,-1,-1,-1],"loss_changes":[2.7211086E1,2.404073E1,0E0,1.5071018E1,0E0,5.148506E0,2.5447993E0,0E0,5.122566E0,0E0,5.7523394E-1,4.342018E0,2.7597423E0,0E0,1.3547459E0,0E0,0E0,0E0,0E0,0E0,0E0],"parents":[2147483647,0,0,1,1,3,3,5,5,6,6,8,8,10,10,11,11,12,12,14,14],"right_children":[2,4,-1,6,-1,8,10,-1,12,-1,14,16,18,-1,20,-1,-1,-1,-1,-1,-1],"split_conditions":[1E0,1E0,-6.252924E-2,1E0,-6.224062E-2,6.0627997E-1,1E0,-5.4678172E-2,9.298275E-1,4.8090298E-2,7.901944E-1,3E-2,1E0,-5.3142693E-2,1E-1,8.035069E-2,4.1422773E-2,8.624574E-2,4.7909166E-3,4.450938E-3,-5.5323284E-2],"split_indices":[9,11,0,1,0,10,17,0,10,0,10,15,17,0,18,0,0,0,0,0,0],"split_type":[0,0,0,0,0,0,0,0,0,0,0,0,0,0,0,0,0,0,0,0,0],"sum_hessian":[2.6039832E2,2.1743939E2,4.295891E1,1.8998323E2,2.7456167E1,1.6001584E2,2.9967386E1,3.926322E0,1.5608952E2,3.0497463E0,2.691764E1,1.2239817E2,3.369135E1,1.2786358E1,1.4131283E1,5.9801697E1,6.259647E1,3.86046E0,2.9830889E1,8.444589E0,5.6866937E0],"tree_param":{"num_deleted":"0","num_feature":"22","num_nodes":"21","size_leaf_vector":"1"}},{"base_weights":[-6.879533E-2,9.338222E-2,-6.080705E-2,2.0291726E-1,-6.0157925E-2,2.864011E-1,-5.8747865E-2,3.2187617E-1,-5.31977E-2,2.4390881E-1,6.6610014E-1,8.986143E-3,3.8576737E-2,9.144273E-2,3.108844E-3],"categories":[],"categories_nodes":[],"categories_segments":[],"categories_sizes":[],"default_left":[0,0,0,0,0,0,0,0,0,0,0,0,0,0,0],"id":14,"left_children":[1,3,-1,5,-1,7,-1,9,-1,11,13,-1,-1,-1,-1],"loss_changes":[2.049903E1,1.386703E1,0E0,1.05099125E1,0E0,4.306162E0,0E0,3.5179176E0,0E0,2.4431362E0,3.8739262E0,0E0,0E0,0E0,0E0],"parents":[2147483647,0,0,1,1,3,3,5,5,7,7,9,9,10,10],"right_children":[2,4,-1,6,-1,8,-1,10,-1,12,14,-1,-1,-1,-1],"split_conditions":[1E0,1E0,-6.080705E-2,1E0,-6.0157925E-2,1E0,-5.8747865E-2,9.545194E-1,-5.31977E-2,1E0,7.6050055E-1,8.986143E-3,3.8576737E-2,9.144273E-2,3.108844E-3],"split_indices":[1,9,0,11,0,13,0,10,0,8,16,0,0,0,0],"split_type":[0,0,0,0,0,0,0,0,0,0,0,0,0,0,0],"sum_hessian":[2.3273701E2,1.7956334E2,5.3173687E1,1.5572676E2,2.3836567E1,1.4142654E2,1.4300219E1,1.3613217E2,5.2943726E0,1.1238528E2,2.3746899E1,5.4661064E1,5.7724213E1,1.6754774E1,6.992124E0],"tree_param":{"num_deleted":"0","num_feature":"22","num_nodes":"15","size_leaf_vector":"1"}},{"base_weights":[-5.4019134E-2,-5.6967413E-1,1.0556921E0,-6.2002774E-2,-3.08422E-1,9.7378397E-1,1.295424E-1,-4.6925643E-1,1.3083929E-1,1.0100297E0,3.7638117E-2,-5.4487514E-1,-1.3265811E-2,4.660264E-2,-2.8556326E-2,8.878593E-1,1.1947117E-1,-5.952669E-2,-2.4407534E-2,5.275789E-1,9.474493E-2,7.217337E-2,1.7876817E-2],"categories":[],"categories_nodes":[],"categories_segments":[],"categories_sizes":[],"default_left":[0,0,0,0,0,0,0,0,0,0,0,0,0,0,0,0,0,0,0,0,0,0,0],"id":15,"left_children":[1,3,5,-1,7,9,-1,11,13,15,-1,17,-1,-1,-1,19,-1,-1,-1,21,-1,-1,-1],"loss_changes":[1.3639284E2,1.9486504E0,2.2372437E-1,0E0,2.059033E0,9.2774963E-1,0E0,4.6008205E-1,1.2999487E0,2.1073914E-1,0E0,1.0870838E-1,0E0,0E0,0E0,3.1189537E-1,0E0,0E0,0E0,3.8721228E-1,0E0,0E0,0E0],"parents":[2147483647,0,0,1,1,2,2,4,4,5,5,7,7,8,8,9,9,11,11,15,15,19,19],"right_children":[2,4,6,-1,8,10,-1,12,14,16,-1,18,-1,-1,-1,20,-1,-1,-1,22,-1,-1,-1],"split_conditions":[1E0,1E0,1.4E-1,-6.2002774E-2,9E-2,1.2E-1,1.295424E-1,1E0,1.1E-1,1E0,3.7638117E-2,8.1748056E-1,-1.3265811E-2,4.660264E-2,-2.8556326E-2,6.786085E-1,1.1947117E-1,-5.952669E-2,-2.4407534E-2,6.2142223E-1,9.474493E-2,7.217337E-2,1.7876817E-2],"split_indices":[1,9,18,0,15,18,0,6,15,9,0,16,0,0,0,10,0,0,0,10,0,0,0],"split_type":[0,0,0,0,0,0,0,0,0,0,0,0,0,0,0,0,0,0,0,0,0,0,0],"sum_hessian":[2.3630295E2,1.6166699E2,7.4635956E1,1.3439122E2,2.7275768E1,5.9402225E1,1.5233728E1,1.991548E1,7.3602886E0,5.535313E1,4.049094E0,1.5756846E1,4.1586337E0,4.011789E0,3.3484995E0,3.6810093E1,1.8543037E1,1.2657449E1,3.0993977E0,6.622719E0,3.0187374E1,3.5677269E0,3.0549922E0],"tree_param":{"num_deleted":"0","num_feature":"22","num_nodes":"23","size_leaf_vector":"1"}},{"base_weights":[-3.6308095E-2,-2.81154E-1,7.826122E-1,-4.4035918E-1,1.1254304E-1,2.5332898E-1,8.5252994E-1,-5.595967E-1,1.368649E-1,1.3899523E-2,3.0559996E-2,7.542981E-1,1.1622956E-1,-5.7510823E-2,-4.2688185E-1,-8.1456274E-2,1.16764806E-1,8.129513E-2,5.016519E-1,-5.052397E-1,-1.6053548E-2,2.665176E-2,-1.8308386E-1,9.454741E-3,8.417571E-2,-2.7521873E-2,-5.5975772E-2,1.7842081E-3,-4.61494E-2],"categories":[],"categories_nodes":[],"categories_segments":[],"categories_sizes":[],"default_left":[0,0,0,0,0,0,0,0,0,0,0,0,0,0,0,0,0,0,0,0,0,0,0,0,0,0,0,0,0],"id":16,"left_children":[1,3,5,7,-1,9,11,13,15,-1,-1,17,-1,-1,19,21,-1,-1,23,25,-1,-1,27,-1,-1,-1,-1,-1,-1],"loss_changes":[4.6766537E1,4.0679787E1,1.7711182E0,1.1220926E1,0E0,3.4708977E-3,5.536766E-1,3.1162262E-2,6.5143676E0,0E0,0E0,1.6326523E-1,0E0,0E0,2.933867E-1,9.142839E-1,0E0,0E0,1.2873728E0,1.3973951E-2,0E0,0E0,1.1009972E0,0E0,0E0,0E0,0E0,0E0,0E0],"parents":[2147483647,0,0,1,1,2,2,3,3,5,5,6,6,7,7,8,8,11,11,14,14,15,15,18,18,19,19,22,22],"right_children":[2,4,6,8,-1,10,12,14,16,-1,-1,18,-1,-1,20,22,-1,-1,24,26,-1,-1,28,-1,-1,-1,-1,-1,-1],"split_conditions":[1E0,1E0,1E-2,1E0,1.1254304E-1,1E0,9E-2,1E0,1E0,1.3899523E-2,3.0559996E-2,1.6E-1,1.1622956E-1,-5.7510823E-2,1.4E-1,2E-2,1.16764806E-1,8.129513E-2,2.4E-1,2E-2,-1.6053548E-2,2.665176E-2,6E-2,9.454741E-3,8.417571E-2,-2.7521873E-2,-5.5975772E-2,1.7842081E-3,-4.61494E-2],"split_indices":[11,13,18,9,0,7,15,0,5,0,0,18,0,0,18,18,0,0,18,15,0,0,15,0,0,0,0,0,0],"split_type":[0,0,0,0,0,0,0,0,0,0,0,0,0,0,0,0,0,0,0,0,0,0,0,0,0,0,0,0,0],"sum_hessian":[2.3114139E2,1.7844536E2,5.269603E1,1.6091861E2,1.752675E1,6.6882944E0,4.6007736E1,1.3339389E2,2.7524723E1,3.2464256E0,3.4418688E0,3.7538662E1,8.469071E0,1.16449974E2,1.694391E1,2.3473898E1,4.050825E0,2.8665955E1,8.872708E0,1.2399197E1,4.544715E0,4.9392757E0,1.8534622E1,4.620266E0,4.252443E0,3.5345454E0,8.864651E0,1.1308965E1,7.225658E0],"tree_param":{"num_deleted":"0","num_feature":"22","num_nodes":"29","size_leaf_vector":"1"}},{"base_weights":[1.21070884E-1,2.8881833E-1,-4.8315126E-1,4.1207865E-1,-6.0915153E-2,-5.378016E-1,-3.4236392E-1,4.781695E-1,-5.7515915E-2,-6.0584214E-2,-3.5206923E-1,-1.3794823E-1,-5.674248E-2,-5.4359492E-2,5.089209E-1,-5.3996917E-2,-6.825304E-3,-3.753669E-2,1.2971594E-2,6.865527E-1,3.8328022E-1,2.6617428E-2,7.791128E-2,1.6635621E-2,4.8435953E-2],"categories":[],"categories_nodes":[],"categories_segments":[],"categories_sizes":[],"default_left":[0,0,0,0,0,0,0,0,0,0,0,0,0,0,0,0,0,0,0,0,0,0,0,0,0],"id":17,"left_children":[1,3,5,7,-1,9,11,13,-1,-1,15,17,-1,-1,19,-1,-1,-1,-1,21,23,-1,-1,-1,-1],"loss_changes":[2.6426281E1,2.278835E1,2.5236034E-1,1.1995987E1,0E0,2.8100872E-1,7.7813697E-1,5.5840225E0,0E0,0E0,6.4973795E-1,7.525692E-1,0E0,0E0,3.40802E0,0E0,0E0,0E0,0E0,2.3950768E0,2.081623E0,0E0,0E0,0E0,0E0],"parents":[2147483647,0,0,1,1,2,2,3,3,5,5,6,6,7,7,10,10,11,11,14,14,19,19,20,20],"right_children":[2,4,6,8,-1,10,12,14,-1,-1,16,18,-1,-1,20,-1,-1,-1,-1,22,24,-1,-1,-1,-1],"split_conditions":[1E0,1E0,1E0,1E0,-6.0915153E-2,6E-2,4E-2,6.1449695E-1,-5.7515915E-2,-6.0584214E-2,1E0,2E-2,-5.674248E-2,-5.4359492E-2,7.984904E-1,-5.3996917E-2,-6.825304E-3,-3.753669E-2,1.2971594E-2,6.6620386E-1,6.224843E-1,2.6617428E-2,7.791128E-2,1.6635621E-2,4.8435953E-2],"split_indices":[1,11,8,13,0,15,15,10,0,0,7,15,0,0,10,0,0,0,0,10,16,0,0,0,0],"split_type":[0,0,0,0,0,0,0,0,0,0,0,0,0,0,0,0,0,0,0,0,0,0,0,0,0],"sum_hessian":[2.5834872E2,2.0261862E2,5.5730083E1,1.7863878E2,2.3979847E1,3.8114845E1,1.761524E1,1.6791342E2,1.0725353E1,2.6240198E1,1.1874647E1,1.0076242E1,7.5389977E0,4.4186816E0,1.6349475E2,6.601564E0,5.273083E0,5.1265783E0,4.9496646E0,6.58836E1,9.7611145E1,1.2588115E1,5.3295486E1,3.1867292E1,6.574385E1],"tree_param":{"num_deleted":"0","num_feature":"22","num_nodes":"25","size_leaf_vector":"1"}},{"base_weights":[-3.579859E-2,1.1625827E-1,-5.9720226E-2,2.2123529E-1,-5.9159875E-2,2.731483E-1,-5.559662E-2,7.623542E-2,4.1391784E-1,-1.555988E-1,2.113417E-1,-5.090978E-2,4.6909526E-1,-2.5532393E-2,3.2322116E-2,-3.597346E-3,4.465661E-2,-4.096836E-2,3.6420997E-2,2.9126028E-2,6.192254E-2],"categories":[],"categories_nodes":[],"categories_segments":[],"categories_sizes":[],"default_left":[0,0,0,0,0,0,0,0,0,0,0,0,0,0,0,0,0,0,0,0,0],"id":18,"left_children":[1,3,-1,5,-1,7,-1,9,11,13,15,17,19,-1,-1,-1,-1,-1,-1,-1,-1],"loss_changes":[2.0396719E1,1.4116417E1,0E0,6.794139E0,0E0,4.26472E0,0E0,2.0950549E0,2.3361712E0,1.2675474E0,2.4605722E0,1.7083076E0,1.9738426E0,0E0,0E0,0E0,0E0,0E0,0E0,0E0,0E0],"parents":[2147483647,0,0,1,1,3,3,5,5,7,7,8,8,9,9,10,10,11,11,12,12],"right_children":[2,4,-1,6,-1,8,-1,10,12,14,16,18,20,-1,-1,-1,-1,-1,-1,-1,-1],"split_conditions":[1E0,1E0,-5.9720226E-2,1E0,-5.9159875E-2,7.9695773E-1,-5.559662E-2,2E-2,1E0,1E0,1E0,1E0,8.9729285E-1,-2.5532393E-2,3.2322116E-2,-3.597346E-3,4.465661E-2,-4.096836E-2,3.6420997E-2,2.9126028E-2,6.192254E-2],"split_indices":[1,11,0,13,0,10,0,15,17,4,8,12,10,0,0,0,0,0,0,0,0],"split_type":[0,0,0,0,0,0,0,0,0,0,0,0,0,0,0,0,0,0,0,0,0],"sum_hessian":[2.3712126E2,1.8720853E2,4.991274E1,1.6362933E2,2.3579195E1,1.5399202E2,9.637314E0,6.483723E1,8.9154785E1,2.3817005E1,4.1020226E1,9.468366E0,7.9686424E1,2.0097921E1,3.7190835E0,2.040912E1,2.0611103E1,5.0858955E0,4.38247E0,3.78233E1,4.186312E1],"tree_param":{"num_deleted":"0","num_feature":"22","num_nodes":"21","size_leaf_vector":"1"}},{"base_weights":[-4.7667503E-2,-5.62756E-1,9.437924E-1,-6.1039377E-2,-2.987321E-1,4.2617327E-1,9.897837E-1,-4.9895728E-1,-1.0213061E-1,9.264828E-3,6.529448E-2,1.0439358E0,7.5922394E-1,-5.6183655E-2,-2.5169743E-2,1.0228569E-1,-4.9999516E-2,6.0260404E-2,1.0778961E-1,3.4579605E-2,8.296582E-2,3.6384698E-2,-1.7465916E-2],"categories":[],"categories_nodes":[],"categories_segments":[],"categories_sizes":[],"default_left":[0,0,0,0,0,0,0,0,0,0,0,0,0,0,0,0,0,0,0,0,0,0,0],"id":19,"left_children":[1,3,5,-1,7,9,11,13,15,-1,-1,17,19,-1,-1,21,-1,-1,-1,-1,-1,-1,-1],"loss_changes":[1.1743898E2,1.7203789E0,1.450325E0,0E0,9.3637514E-1,5.5769336E-1,9.9723816E-2,4.7784805E-2,1.1826688E0,0E0,0E0,1.7790604E-1,2.1570778E-1,0E0,0E0,7.8944385E-1,0E0,0E0,0E0,0E0,0E0,0E0,0E0],"parents":[2147483647,0,0,1,1,2,2,4,4,5,5,6,6,7,7,8,8,11,11,12,12,15,15],"right_children":[2,4,6,-1,8,10,12,14,16,-1,-1,18,20,-1,-1,22,-1,-1,-1,-1,-1,-1,-1],"split_conditions":[1E0,1E0,5.25559E-1,-6.1039377E-2,3E-2,4E-2,1E0,7.713496E-1,1E0,9.264828E-3,6.529448E-2,1E0,6.292215E-1,-5.6183655E-2,-2.5169743E-2,6.93045E-1,-4.9999516E-2,6.0260404E-2,1.0778961E-1,3.4579605E-2,8.296582E-2,3.6384698E-2,-1.7465916E-2],"split_indices":[1,9,16,0,15,15,11,16,11,0,0,17,16,0,0,16,0,0,0,0,0,0,0],"split_type":[0,0,0,0,0,0,0,0,0,0,0,0,0,0,0,0,0,0,0,0,0,0,0],"sum_hessian":[2.2792159E2,1.5027982E2,7.764177E1,1.2619803E2,2.408179E1,7.1734133E0,7.046835E1,1.1169008E1,1.2912783E1,3.4734206E0,3.6999927E0,5.4208454E1,1.62599E1,7.8902354E0,3.2787724E0,9.020904E0,3.891879E0,5.2125864E0,4.899587E1,3.2271276E0,1.3032771E1,4.477926E0,4.5429773E0],"tree_param":{"num_deleted":"0","num_feature":"22","num_nodes":"23","size_leaf_vector":"1"}},{"base_weights":[-2.03337E-2,-2.7182433E-1,7.2216165E-1,-4.1933438E-1,1.0338489E-1,1.0935294E-1,-3.5747718E-2,3.8060734E-1,-4.6809575E-1,7.103861E-2,-2.3274866E-1,9.297588E-2,-4.972607E-2,-3.64588E-1,-5.906513E-2,-3.2138982E-1,4.868947E-3,1.2229377E-1,-5.5185426E-2,-8.610379E-3,-4.6696056E-2,8.658534E-2,-5.8275104E-2],"categories":[],"categories_nodes":[],"categories_segments":[],"categories_sizes":[],"default_left":[0,0,0,0,0,0,0,0,0,0,0,0,0,0,0,0,0,0,0,0,0,0,0],"id":20,"left_children":[1,3,5,7,-1,-1,9,11,13,-1,15,-1,-1,17,-1,19,-1,21,-1,-1,-1,-1,-1],"loss_changes":[4.4466927E1,3.468252E1,1.6999588E1,6.4380856E0,0E0,0E0,3.220445E0,5.17327E0,1.7092056E0,0E0,4.4464493E-1,0E0,0E0,7.804817E0,0E0,4.122125E-1,0E0,1.3291623E1,0E0,0E0,0E0,0E0,0E0],"parents":[2147483647,0,0,1,1,2,2,3,3,6,6,7,7,8,8,10,10,13,13,15,15,17,17],"right_children":[2,4,6,8,-1,-1,10,12,14,-1,16,-1,-1,18,-1,20,-1,22,-1,-1,-1,-1,-1],"split_conditions":[1E0,1E0,1E0,6.0627997E-1,1.0338489E-1,1.0935294E-1,7.470323E-1,1E0,1E0,7.103861E-2,8E-2,9.297588E-2,-4.972607E-2,1E0,-5.906513E-2,8.322778E-1,4.868947E-3,1E0,-5.5185426E-2,-8.610379E-3,-4.6696056E-2,8.658534E-2,-5.8275104E-2],"split_indices":[11,13,1,10,0,0,10,1,7,0,15,0,0,8,0,10,0,1,0,0,0,0,0],"split_type":[0,0,0,0,0,0,0,0,0,0,0,0,0,0,0,0,0,0,0,0,0,0,0],"sum_hessian":[2.3608284E2,1.7682451E2,5.925833E1,1.5948529E2,1.7339214E1,3.947377E1,1.9784563E1,8.772057E0,1.5071324E2,3.5882382E0,1.6196323E1,5.3599954E0,3.4120615E0,8.386097E1,6.685227E1,1.2209036E1,3.9872878E0,2.3391455E1,6.0469513E1,5.274825E0,6.934211E0,1.1273757E1,1.2117697E1],"tree_param":{"num_deleted":"0","num_feature":"22","num_nodes":"23","size_leaf_vector":"1"}},{"base_weights":[6.851031E-2,1.9033295E-1,-6.0699236E-2,2.96462E-1,-5.9846967E-2,3.8736638E-1,-2.889487E-1,-5.264172E-2,4.1066095E-1,-4.2583215E-1,-5.3345732E-2,2.3976918E-1,5.06868E-1,-5.6521166E-2,-2.4177104E-1,4.122728E-2,-4.049558E-2,4.1597623E-2,-3.401869E-2,1.0906122E-2,5.421966E-2,-4.8398092E-2,-2.3542822E-3],"categories":[],"categories_nodes":[],"categories_segments":[],"categories_sizes":[],"default_left":[0,0,0,0,0,0,0,0,0,0,0,0,0,0,0,0,0,0,0,0,0,0,0],"id":21,"left_children":[1,3,-1,5,-1,7,9,-1,11,13,15,17,19,-1,21,-1,-1,-1,-1,-1,-1,-1,-1],"loss_changes":[2.1862587E1,1.8984173E1,0E0,1.0684954E1,0E0,3.8859692E0,8.5698915E-1,0E0,2.6517086E0,3.023002E-1,1.9952248E0,6.5443063E0,1.4449749E0,0E0,4.707026E-1,0E0,0E0,0E0,0E0,0E0,0E0,0E0,0E0],"parents":[2147483647,0,0,1,1,3,3,5,5,6,6,8,8,9,9,10,10,11,11,12,12,14,14],"right_children":[2,4,-1,6,-1,8,10,-1,12,14,16,18,20,-1,22,-1,-1,-1,-1,-1,-1,-1,-1],"split_conditions":[1E0,1E0,-6.0699236E-2,1E0,-5.9846967E-2,6.0627997E-1,8.3500886E-1,-5.264172E-2,6.545201E-1,6E-2,5E-2,9.2873555E-1,6.6620386E-1,-5.6521166E-2,7.143715E-1,4.122728E-2,-4.049558E-2,4.1597623E-2,-3.401869E-2,1.0906122E-2,5.421966E-2,-4.8398092E-2,-2.3542822E-3],"split_indices":[9,11,0,1,0,10,10,0,16,18,18,10,10,0,10,0,0,0,0,0,0,0,0],"split_type":[0,0,0,0,0,0,0,0,0,0,0,0,0,0,0,0,0,0,0,0,0,0,0],"sum_hessian":[2.632685E2,2.2365242E2,3.9616066E1,1.9767984E2,2.5972572E1,1.7140227E2,2.627757E1,3.7239404E0,1.6767833E2,1.6110239E1,1.0167332E1,6.165437E1,1.06023964E2,7.9894667E0,8.120772E0,4.3002324E0,5.867099E0,4.7504044E1,1.4150327E1,8.9811735E0,9.7042786E1,3.2717297E0,4.849043E0],"tree_param":{"num_deleted":"0","num_feature":"22","num_nodes":"23","size_leaf_vector":"1"}},{"base_weights":[-4.2728957E-2,1.0186113E-1,-5.869866E-2,2.0787354E-1,-5.885615E-2,2.917711E-1,-5.725601E-2,3.2438827E-1,-5.07212E-2,3.538634E-1,-2.146923E-1,3.116911E-2,7.795889E-2,-4.1596065E-3,-3.2450408E-2],"categories":[],"categories_nodes":[],"categories_segments":[],"categories_sizes":[],"default_left":[0,0,0,0,0,0,0,0,0,0,0,0,0,0,0],"id":22,"left_children":[1,3,-1,5,-1,7,-1,9,-1,11,13,-1,-1,-1,-1],"loss_changes":[1.7965878E1,1.3343347E1,0E0,1.0468245E1,0E0,3.8838387E0,0E0,2.26443E0,0E0,2.1083755E0,1.340537E-1,0E0,0E0,0E0,0E0],"parents":[2147483647,0,0,1,1,3,3,5,5,7,7,9,9,10,10],"right_children":[2,4,-1,6,-1,8,-1,10,-1,12,14,-1,-1,-1,-1],"split_conditions":[1E0,1E0,-5.869866E-2,1E0,-5.885615E-2,1E0,-5.725601E-2,8.619595E-1,-5.07212E-2,1.2E-1,7.573545E-1,3.116911E-2,7.795889E-2,-4.1596065E-3,-3.2450408E-2],"split_indices":[1,9,0,11,0,13,0,16,0,15,10,0,0,0,0],"split_type":[0,0,0,0,0,0,0,0,0,0,0,0,0,0,0],"sum_hessian":[2.2653995E2,1.7963112E2,4.6908817E1,1.5632655E2,2.3304575E1,1.4171785E2,1.46087E1,1.3673007E2,4.9877768E0,1.2996745E2,6.7626123E0,1.1982932E2,1.0138133E1,3.1601167E0,3.6024957E0],"tree_param":{"num_deleted":"0","num_feature":"22","num_nodes":"15","size_leaf_vector":"1"}},{"base_weights":[-5.4893013E-2,-2.0776029E-1,4.048657E-1,-1.4818767E-1,-5.808979E-2,5.145708E-1,-5.333046E-2,-7.219039E-2,-5.800135E-2,7.471077E-1,-1.1672158E-1,2.0824691E-2,-5.7710875E-2,3.286324E-2,7.768507E-1,-4.6828546E-2,3.3864137E-2,1.4198327E-1,-5.7370204E-2,5.223116E-1,8.389633E-1,3.1898182E-2,-5.7406392E-2,1.7512761E-2,7.4376635E-2,3.9029714E-2,8.8281356E-2],"categories":[],"categories_nodes":[],"categories_segments":[],"categories_sizes":[],"default_left":[0,0,0,0,0,0,0,0,0,0,0,0,0,0,0,0,0,0,0,0,0,0,0,0,0,0,0],"id":23,"left_children":[1,3,5,7,-1,9,-1,11,-1,13,15,17,-1,-1,19,-1,-1,21,-1,23,25,-1,-1,-1,-1,-1,-1],"loss_changes":[1.6464945E1,3.8167462E0,6.295081E0,4.9708786E0,0E0,7.850211E0,0E0,6.165803E0,0E0,2.2740555E-1,2.5759814E0,8.121041E0,0E0,0E0,1.2265968E-1,0E0,0E0,1.2035547E1,0E0,6.0846615E-1,1.840229E-1,0E0,0E0,0E0,0E0,0E0,0E0],"parents":[2147483647,0,0,1,1,2,2,3,3,5,5,7,7,9,9,10,10,11,11,14,14,17,17,19,19,20,20],"right_children":[2,4,6,8,-1,10,-1,12,-1,14,16,18,-1,-1,20,-1,-1,22,-1,24,26,-1,-1,-1,-1,-1,-1],"split_conditions":[1E0,1E0,1E0,1E0,-5.808979E-2,1E0,-5.333046E-2,1E0,-5.800135E-2,1E-2,1E0,1E0,-5.7710875E-2,3.286324E-2,6.713376E-1,-4.6828546E-2,3.3864137E-2,1E0,-5.7370204E-2,7.2655714E-1,5.3664416E-1,3.1898182E-2,-5.7406392E-2,1.7512761E-2,7.4376635E-2,3.9029714E-2,8.8281356E-2],"split_indices":[9,4,13,5,0,11,0,6,0,18,12,0,0,0,10,0,0,2,0,16,16,0,0,0,0,0,0],"split_type":[0,0,0,0,0,0,0,0,0,0,0,0,0,0,0,0,0,0,0,0,0,0,0,0,0,0,0],"sum_hessian":[2.3207268E2,1.7457541E2,5.749727E1,1.5174583E2,2.282958E1,5.1881958E1,5.615308E0,1.3002911E2,2.1716719E1,3.778162E1,1.4100339E1,1.10611275E2,1.941784E1,3.3066788E0,3.447494E1,7.9410543E0,6.159285E0,9.251818E1,1.8093094E1,8.60805E0,2.586689E1,7.4626015E1,1.7892162E1,4.0498047E0,4.5582457E0,3.1844926E0,2.2682398E1],"tree_param":{"num_deleted":"0","num_feature":"22","num_nodes":"27","size_leaf_vector":"1"}},{"base_weights":[-4.7777135E-2,-1.6668634E-1,9.944658E-2,-3.0597207E-1,3.5137776E-1,-3.777751E-1,-2.682922E-1,8.404056E-2,-3.8907486E-1,-2.4128082E-1,-4.9755707E-1,-1.7625802E-3,-2.999439E-1,-5.1060446E-2,-7.724902E-3,-5.1416326E-2,-1.5702932E-1,-5.179839E-1,-2.5179137E-2,-1.6722788E-1,3.4379255E-2,-5.1435053E-2,-2.5850376E-1,2.6139054E-3,-2.6336167E-2,-5.429253E-2,-2.6904512E-2,1.0997138E-2,-4.775788E-2,-1.7078718E-2,-3.4774132E-2],"categories":[],"categories_nodes":[],"categories_segments":[],"categories_sizes":[],"default_left":[0,0,0,0,0,0,0,0,0,0,0,0,0,0,0,0,0,0,0,0,0,0,0,0,0,0,0,0,0,0,0],"id":24,"left_children":[1,3,-1,5,7,9,11,-1,13,15,17,19,21,-1,-1,-1,23,25,-1,27,-1,-1,29,-1,-1,-1,-1,-1,-1,-1,-1],"loss_changes":[2.8228067E1,1.4835218E1,0E0,3.35289E-1,1.6155315E1,7.480011E-1,9.214988E-1,0E0,6.4534616E-1,5.344244E-1,6.8101883E-3,7.783565E-1,7.3499775E-1,0E0,0E0,0E0,4.331209E-1,4.758835E-3,0E0,8.438182E-1,0E0,0E0,5.9715414E-1,0E0,0E0,0E0,0E0,0E0,0E0,0E0,0E0],"parents":[2147483647,0,0,1,1,3,3,4,4,5,5,6,6,8,8,9,9,10,10,11,11,12,12,16,16,17,17,19,19,22,22],"right_children":[2,4,-1,6,8,10,12,-1,14,16,18,20,22,-1,-1,-1,24,26,-1,28,-1,-1,30,-1,-1,-1,-1,-1,-1,-1,-1],"split_conditions":[1E0,1E0,9.944658E-2,6.3129693E-1,1E0,5.6064856E-1,6.6346735E-1,8.404056E-2,7E-2,5.079665E-1,1E0,6.545201E-1,6.9739103E-1,-5.1060446E-2,-7.724902E-3,-5.1416326E-2,5.2429044E-1,6.2444496E-1,-2.5179137E-2,6.467151E-1,3.4379255E-2,-5.1435053E-2,1E0,2.6139054E-3,-2.6336167E-2,-5.429253E-2,-2.6904512E-2,1.0997138E-2,-4.775788E-2,-1.7078718E-2,-3.4774132E-2],"split_indices":[13,9,0,16,1,16,16,0,15,16,3,16,16,0,0,0,16,16,0,16,0,0,8,0,0,0,0,0,0,0,0],"split_type":[0,0,0,0,0,0,0,0,0,0,0,0,0,0,0,0,0,0,0,0,0,0,0,0,0,0,0,0,0,0,0],"sum_hessian":[2.2543257E2,2.0310092E2,2.2331657E1,1.6038855E2,4.271237E1,5.2093304E1,1.0829524E2,2.564216E1,1.7070211E1,2.5756975E1,2.6336329E1,1.1607516E1,9.668773E1,1.1824369E1,5.245842E0,4.8725486E0,2.0884426E1,2.3292719E1,3.043611E0,8.198036E0,3.4094803E0,1.3812345E1,8.287538E1,7.9477644E0,1.2936663E1,2.0098114E1,3.1946049E0,4.6713414E0,3.5266945E0,4.326331E1,3.9612076E1],"tree_param":{"num_deleted":"0","num_feature":"22","num_nodes":"31","size_leaf_vector":"1"}},{"base_weights":[7.347477E-2,2.0212273E-1,-5.9717365E-2,3.021936E-1,-5.874003E-2,4.0408123E-1,-3.5407057E-1,4.3919966E-1,-5.2735396E-2,-4.2329237E-1,-5.3069247E-3,8.040025E-1,3.9356545E-1,-2.680693E-1,-5.7108123E-2,9.379397E-2,2.411194E-2,6.355753E-2,3.3744223E-2,-4.2061545E-2,-2.2632468E-3],"categories":[],"categories_nodes":[],"categories_segments":[],"categories_sizes":[],"default_left":[0,0,0,0,0,0,0,0,0,0,0,0,0,0,0,0,0,0,0,0,0],"id":25,"left_children":[1,3,-1,5,-1,7,9,11,-1,13,-1,15,17,19,-1,-1,-1,-1,-1,-1,-1],"loss_changes":[2.2667507E1,1.7560482E1,0E0,1.3243658E1,0E0,5.7944393E0,5.3725505E-1,2.4208984E0,0E0,3.4465098E-1,0E0,1.0798416E0,1.7971554E0,4.572553E-1,0E0,0E0,0E0,0E0,0E0,0E0,0E0],"parents":[2147483647,0,0,1,1,3,3,5,5,6,6,7,7,9,9,11,11,12,12,13,13],"right_children":[2,4,-1,6,-1,8,10,12,-1,14,-1,16,18,20,-1,-1,-1,-1,-1,-1,-1],"split_conditions":[1E0,1E0,-5.9717365E-2,1E0,-5.874003E-2,1E0,8.047894E-1,1E0,-5.2735396E-2,6.545201E-1,-5.3069247E-3,1E0,5.8092E-1,5.675249E-1,-5.7108123E-2,9.379397E-2,2.411194E-2,6.355753E-2,3.3744223E-2,-4.2061545E-2,-2.2632468E-3],"split_indices":[9,11,0,1,0,13,16,17,0,16,0,6,16,16,0,0,0,0,0,0,0],"split_type":[0,0,0,0,0,0,0,0,0,0,0,0,0,0,0,0,0,0,0,0,0],"sum_hessian":[2.6032874E2,2.190146E2,4.1314137E1,1.9492535E2,2.4089254E1,1.6906207E2,2.5863287E1,1.634287E2,5.633372E0,2.0697231E1,5.1660566E0,1.6323013E1,1.4710568E2,1.1467133E1,9.230098E0,1.2647297E1,3.6757169E0,2.5748877E1,1.21356804E2,6.631635E0,4.8354974E0],"tree_param":{"num_deleted":"0","num_feature":"22","num_nodes":"21","size_leaf_vector":"1"}},{"base_weights":[-3.854896E-2,9.268843E-2,-5.804211E-2,1.8748175E-1,-5.7712983E-2,2.6258868E-1,-5.6132175E-2,1.4727752E-2,3.9033663E-1,-1.5841623E-1,2.2544272E-1,-2.6008448E-2,4.3108255E-1,-2.6539583E-2,3.2050174E-2,4.2019047E-2,-2.2506434E-2,8.585864E-2,3.739518E-2],"categories":[],"categories_nodes":[],"categories_segments":[],"categories_sizes":[],"default_left":[0,0,0,0,0,0,0,0,0,0,0,0,0,0,0,0,0,0,0],"id":26,"left_children":[1,3,-1,5,-1,7,-1,9,11,13,15,-1,17,-1,-1,-1,-1,-1,-1],"loss_changes":[1.613175E1,1.1719341E1,0E0,9.199417E0,0E0,4.6476E0,0E0,1.8972069E0,2.6812048E0,1.5501254E0,2.1499267E0,0E0,1.9161549E0,0E0,0E0,0E0,0E0,0E0,0E0],"parents":[2147483647,0,0,1,1,3,3,5,5,7,7,8,8,9,9,10,10,12,12],"right_children":[2,4,-1,6,-1,8,-1,10,12,14,16,-1,18,-1,-1,-1,-1,-1,-1],"split_conditions":[1E0,1E0,-5.804211E-2,1E0,-5.7712983E-2,2E-2,-5.6132175E-2,8.4902096E-1,6.4184093E-1,1E0,9.8332727E-1,-2.6008448E-2,6.7939776E-1,-2.6539583E-2,3.2050174E-2,4.2019047E-2,-2.2506434E-2,8.585864E-2,3.739518E-2],"split_indices":[1,9,0,11,0,15,0,10,10,4,10,0,10,0,0,0,0,0,0],"split_type":[0,0,0,0,0,0,0,0,0,0,0,0,0,0,0,0,0,0,0],"sum_hessian":[2.2508739E2,1.8186902E2,4.321837E1,1.5995248E2,2.1916527E1,1.459615E2,1.3990993E1,5.0022137E1,9.593936E1,2.7595324E1,2.2426813E1,5.338506E0,9.060085E1,2.2921103E1,4.6742206E0,1.5705044E1,6.7217703E0,9.026675E0,8.157418E1],"tree_param":{"num_deleted":"0","num_feature":"22","num_nodes":"19","size_leaf_vector":"1"}},{"base_weights":[-1.013561E-2,-5.2829075E-1,8.55321E-1,-5.584902E-1,-3.8052177E-1,3.335392E-2,8.7143844E-1,-2.4857694E-2,-5.653339E-1,-1.8041472E-1,-5.12176E-1,5.154065E-1,8.9625466E-1,-5.8802743E-2,-4.2489895E-1,1.4541953E-2,-4.0418867E-2,-5.625189E-2,-2.3732608E-2,2.3904221E-2,6.728914E-2,4.602802E-2,9.09886E-2,-3.0439082E-1,-5.3302385E-2,8.07579E-3,-5.195312E-2],"categories":[],"categories_nodes":[],"categories_segments":[],"categories_sizes":[],"default_left":[0,0,0,0,0,0,0,0,0,0,0,0,0,0,0,0,0,0,0,0,0,0,0,0,0,0,0],"id":27,"left_children":[1,3,5,7,9,-1,11,-1,13,15,17,19,21,-1,23,-1,-1,-1,-1,-1,-1,-1,-1,25,-1,-1,-1],"loss_changes":[1.04210045E2,4.3609238E-1,4.4125366E-1,1.1089325E-1,6.4002895E-1,0E0,2.7849197E-1,0E0,1.1727905E-1,9.757682E-1,9.100485E-2,1.7923832E-1,3.873825E-2,0E0,9.353399E-2,0E0,0E0,0E0,0E0,0E0,0E0,0E0,0E0,1.004378E0,0E0,0E0,0E0],"parents":[2147483647,0,0,1,1,2,2,3,3,4,4,6,6,8,8,9,9,10,10,11,11,12,12,14,14,23,23],"right_children":[2,4,6,8,10,-1,12,-1,14,16,18,20,22,-1,24,-1,-1,-1,-1,-1,-1,-1,-1,26,-1,-1,-1],"split_conditions":[1E0,9E-2,5.048348E-1,5.655281E-1,1.1E-1,3.335392E-2,1E0,-2.4857694E-2,1E0,5.893564E-1,2.1E-1,7.5636834E-1,5.655281E-1,-5.8802743E-2,1E0,1.4541953E-2,-4.0418867E-2,-5.625189E-2,-2.3732608E-2,2.3904221E-2,6.728914E-2,4.602802E-2,9.09886E-2,1E0,-5.3302385E-2,8.07579E-3,-5.195312E-2],"split_indices":[1,15,16,10,15,0,17,0,6,16,18,10,10,0,7,0,0,0,0,0,0,0,0,8,0,0,0],"split_type":[0,0,0,0,0,0,0,0,0,0,0,0,0,0,0,0,0,0,0,0,0,0,0,0,0,0,0],"sum_hessian":[2.3037544E2,1.4434477E2,8.603068E1,1.1754307E2,2.6801708E1,3.2278419E0,8.280283E1,3.3459287E0,1.14197136E2,1.1576476E1,1.5225232E1,6.8139367E0,7.59889E1,9.556683E1,1.86303E1,4.8559465E0,6.7205296E0,1.198361E1,3.241622E0,3.3873968E0,3.4265397E0,3.3579159E0,7.263098E1,1.0614891E1,8.015409E0,4.0281825E0,6.5867085E0],"tree_param":{"num_deleted":"0","num_feature":"22","num_nodes":"27","size_leaf_vector":"1"}},{"base_weights":[-3.2164574E-2,-2.2949462E-1,6.094282E-1,-3.8755065E-1,3.2020983E-1,9.642596E-2,-3.7271913E-2,-4.1391304E-1,-1.9544688E-1,7.51405E-1,-5.0892632E-2,4.0669207E-2,-1.8072928E-1,-3.7609112E-1,-5.2177794E-2,-2.6236326E-1,4.848404E-3,8.393097E-1,1.779514E-2,-3.2114944E-1,-3.702918E-2,-1.935034E-1,-4.038713E-1,-8.037052E-2,-4.1697174E-2,9.521174E-2,4.7320537E-2,-5.0160814E-2,-7.625095E-3,2.000387E-2,-2.0458434E-2,-3.8924042E-2,3.2575306E-2,-4.2751145E-2,-5.9266584E-3,1.7056054E-2,-2.9651662E-2],"categories":[],"categories_nodes":[],"categories_segments":[],"categories_sizes":[],"default_left":[0,0,0,0,0,0,0,0,0,0,0,0,0,0,0,0,0,0,0,0,0,0,0,0,0,0,0,0,0,0,0,0,0,0,0,0,0],"id":28,"left_children":[1,3,5,7,9,-1,11,13,15,17,-1,-1,19,21,-1,23,-1,25,-1,27,29,31,33,35,-1,-1,-1,-1,-1,-1,-1,-1,-1,-1,-1,-1,-1],"loss_changes":[2.8221739E1,1.4925643E1,1.2070789E1,5.9148026E-1,1.4179818E1,0E0,1.3182539E0,2.763977E-1,3.051588E-1,1.1508207E0,0E0,0E0,3.001337E-1,3.7509632E-1,0E0,3.6646354E-1,0E0,4.6196938E-1,0E0,3.0163097E-1,3.893955E-1,1.5212525E0,5.989876E-1,4.7189468E-1,0E0,0E0,0E0,0E0,0E0,0E0,0E0,0E0,0E0,0E0,0E0,0E0,0E0],"parents":[2147483647,0,0,1,1,2,2,3,3,4,4,6,6,7,7,8,8,9,9,12,12,13,13,15,15,17,17,19,19,20,20,21,21,22,22,23,23],"right_children":[2,4,6,8,10,-1,12,14,16,18,-1,-1,20,22,-1,24,-1,26,-1,28,30,32,34,36,-1,-1,-1,-1,-1,-1,-1,-1,-1,-1,-1,-1,-1],"split_conditions":[1E0,1E0,1E0,1E0,1E0,9.642596E-2,5.675249E-1,1.4E-1,8.111289E-1,1E0,-5.0892632E-2,4.0669207E-2,7.4051523E-1,5.524956E-1,-5.2177794E-2,1E0,4.848404E-3,1E0,1.779514E-2,7E-2,7.9719555E-1,5.405865E-1,1.2E-1,6.587548E-1,-4.1697174E-2,9.521174E-2,4.7320537E-2,-5.0160814E-2,-7.625095E-3,2.000387E-2,-2.0458434E-2,-3.8924042E-2,3.2575306E-2,-4.2751145E-2,-5.9266584E-3,1.7056054E-2,-2.9651662E-2],"split_indices":[11,9,1,0,1,0,16,18,16,0,0,0,16,16,0,7,0,6,0,18,16,16,18,16,0,0,0,0,0,0,0,0,0,0,0,0,0],"split_type":[0,0,0,0,0,0,0,0,0,0,0,0,0,0,0,0,0,0,0,0,0,0,0,0,0,0,0,0,0,0,0,0,0,0,0,0,0],"sum_hessian":[2.2080606E2,1.6935965E2,5.144641E1,1.3176761E2,3.7592045E1,3.2902454E1,1.8543957E1,1.1485186E2,1.6915749E1,2.4792412E1,1.2799631E1,4.080602E0,1.4463355E1,8.835693E1,2.649493E1,1.3214982E1,3.700766E0,2.1095135E1,3.6972783E0,6.690605E0,7.7727504E0,1.2719871E1,7.563706E1,6.7680306E0,6.4469514E0,1.4902541E1,6.1925926E0,3.2485857E0,3.4420195E0,3.1384294E0,4.6343207E0,9.419514E0,3.3003569E0,7.055626E1,5.0808034E0,3.2295928E0,3.538438E0],"tree_param":{"num_deleted":"0","num_feature":"22","num_nodes":"37","size_leaf_vector":"1"}},{"base_weights":[8.92151E-2,2.0359676E-1,-5.856983E-2,3.0238885E-1,-5.8171075E-2,3.281523E-1,-5.114009E-2,1.643148E-1,4.2349276E-1,3.1201327E-1,-4.1397516E-2,8.34595E-1,3.8371086E-1,4.0570446E-4,5.4600943E-2,1.1701477E-2,-6.147359E-2,2.3657056E-2,1.1719461E-1,3.2413263E-2,7.400104E-2],"categories":[],"categories_nodes":[],"categories_segments":[],"categories_sizes":[],"default_left":[0,0,0,0,0,0,0,0,0,0,0,0,0,0,0,0,0,0,0,0,0],"id":29,"left_children":[1,3,-1,5,-1,7,-1,9,11,13,15,17,19,-1,-1,-1,-1,-1,-1,-1,-1],"loss_changes":[2.0018864E1,1.7334053E1,0E0,4.3003445E0,0E0,2.924305E0,0E0,2.2047677E0,1.650898E0,3.032116E0,2.8903542E0,1.6964436E0,2.1321945E0,0E0,0E0,0E0,0E0,0E0,0E0,0E0,0E0],"parents":[2147483647,0,0,1,1,3,3,5,5,7,7,8,8,9,9,10,10,11,11,12,12],"right_children":[2,4,-1,6,-1,8,-1,10,12,14,16,18,20,-1,-1,-1,-1,-1,-1,-1,-1],"split_conditions":[1E0,1E0,-5.856983E-2,1E0,-5.8171075E-2,6.540263E-1,-5.114009E-2,5.836504E-1,6.717033E-1,7E-2,9.278305E-1,7.8298557E-1,1E0,4.0570446E-4,5.4600943E-2,1.1701477E-2,-6.147359E-2,2.3657056E-2,1.1719461E-1,3.2413263E-2,7.400104E-2],"split_indices":[9,11,0,13,0,16,0,16,16,18,10,10,0,0,0,0,0,0,0,0,0],"split_type":[0,0,0,0,0,0,0,0,0,0,0,0,0,0,0,0,0,0,0,0,0],"sum_hessian":[2.5677472E2,2.2016103E2,3.661368E1,1.9610576E2,2.4055262E1,1.9066629E2,5.439472E0,7.113979E1,1.195265E2,4.1108063E1,3.003173E1,8.783138E0,1.1074336E2,1.8188282E1,2.2919779E1,2.4153948E1,5.8777833E0,3.7812865E0,5.001852E0,9.65145E1,1.4228855E1],"tree_param":{"num_deleted":"0","num_feature":"22","num_nodes":"21","size_leaf_vector":"1"}},{"base_weights":[-4.5334265E-2,8.1892736E-2,-5.72997E-2,1.6444843E-1,-5.679485E-2,2.285001E-1,-5.554082E-2,1.3837641E-1,4.4399828E-1,1.0849578E-1,8.422492E-2,3.2663575E-1,9.254029E-1,1.6405992E-2,-2.5062565E-2,1.7538676E-2,4.667456E-2,4.3290496E-2,1.14613056E-1],"categories":[],"categories_nodes":[],"categories_segments":[],"categories_sizes":[],"default_left":[0,0,0,0,0,0,0,0,0,0,0,0,0,0,0,0,0,0,0],"id":30,"left_children":[1,3,-1,5,-1,7,-1,9,11,13,-1,15,17,-1,-1,-1,-1,-1,-1],"loss_changes":[1.5530474E1,1.0109929E1,0E0,7.801028E0,0E0,2.9206734E0,0E0,2.2162867E0,2.2303553E0,2.1642642E0,0E0,7.146292E-1,3.9966583E-1,0E0,0E0,0E0,0E0,0E0,0E0],"parents":[2147483647,0,0,1,1,3,3,5,5,7,7,8,8,9,9,11,11,12,12],"right_children":[2,4,-1,6,-1,8,-1,10,12,14,-1,16,18,-1,-1,-1,-1,-1,-1],"split_conditions":[1E0,1E0,-5.72997E-2,1E0,-5.679485E-2,9.020101E-1,-5.554082E-2,3.6E-1,1E0,8.7167495E-1,8.422492E-2,1E0,3E-2,1.6405992E-2,-2.5062565E-2,1.7538676E-2,4.667456E-2,4.3290496E-2,1.14613056E-1],"split_indices":[1,9,0,11,0,10,0,18,4,10,0,7,15,0,0,0,0,0,0],"split_type":[0,0,0,0,0,0,0,0,0,0,0,0,0,0,0,0,0,0,0],"sum_hessian":[2.2964012E2,1.8570807E2,4.393206E1,1.6543782E2,2.0270247E1,1.5254701E2,1.289081E1,1.0872088E2,4.3826134E1,1.0540058E2,3.3202977E0,3.6585415E1,7.2407193E0,9.174823E1,1.36523485E1,1.8676188E1,1.7909225E1,3.15729E0,4.08343E0],"tree_param":{"num_deleted":"0","num_feature":"22","num_nodes":"19","size_leaf_vector":"1"}},{"base_weights":[-2.5353251E-2,-1.3947298E-1,3.4156612E-1,-7.513277E-2,-5.646767E-2,4.4714373E-1,-5.1434834E-2,4.24513E-3,-5.709837E-2,6.49794E-1,-1.2646672E-1,1.0471626E-1,-5.6160744E-2,1.5829302E-2,6.9255394E-1,-5.214407E-2,1.3358133E-1,2.3844413E-1,-5.5993643E-2,5.0906074E-1,7.679622E-1,5.0826516E-2,-1.9085271E-2,4.326811E-2,-5.6130618E-2,3.390974E-2,6.711816E-2,8.265224E-2,3.242625E-2],"categories":[],"categories_nodes":[],"categories_segments":[],"categories_sizes":[],"default_left":[0,0,0,0,0,0,0,0,0,0,0,0,0,0,0,0,0,0,0,0,0,0,0,0,0,0,0,0,0],"id":31,"left_children":[1,3,5,7,-1,9,-1,11,-1,13,15,17,-1,-1,19,-1,21,23,-1,25,27,-1,-1,-1,-1,-1,-1,-1,-1],"loss_changes":[9.40925E0,4.6424017E0,5.0491276E0,5.9020615E0,0E0,5.662798E0,0E0,7.46088E0,0E0,6.3936806E-1,1.4429337E0,1.0035934E1,0E0,0E0,5.861759E-2,0E0,1.1738064E0,1.4759552E1,0E0,1.14887714E-1,2.7920723E-1,0E0,0E0,0E0,0E0,0E0,0E0,0E0,0E0],"parents":[2147483647,0,0,1,1,2,2,3,3,5,5,7,7,9,9,10,10,11,11,14,14,16,16,17,17,19,19,20,20],"right_children":[2,4,6,8,-1,10,-1,12,-1,14,16,18,-1,-1,20,-1,22,24,-1,26,28,-1,-1,-1,-1,-1,-1,-1,-1],"split_conditions":[1E0,1E0,1E0,1E0,-5.646767E-2,1E0,-5.1434834E-2,1E0,-5.709837E-2,5.236445E-1,7.85459E-1,1E0,-5.6160744E-2,1.5829302E-2,2E-2,-5.214407E-2,8.507265E-1,1E0,-5.5993643E-2,9.101802E-1,9.7600377E-1,5.0826516E-2,-1.9085271E-2,4.326811E-2,-5.6130618E-2,3.390974E-2,6.711816E-2,8.265224E-2,3.242625E-2],"split_indices":[9,4,13,3,0,11,0,5,0,16,10,2,0,0,15,0,10,6,0,10,10,0,0,0,0,0,0,0,0],"split_type":[0,0,0,0,0,0,0,0,0,0,0,0,0,0,0,0,0,0,0,0,0,0,0,0,0,0,0,0,0],"sum_hessian":[2.2257295E2,1.7024348E2,5.2329464E1,1.4889062E2,2.135286E1,4.7008514E1,5.320949E0,1.2919931E2,1.9691328E1,3.463835E1,1.2370163E1,1.1041014E2,1.8789164E1,3.1486228E0,3.1489729E1,4.5119767E0,7.8581862E0,9.24504E1,1.7959736E1,1.1429271E1,2.006046E1,3.3837385E0,4.4744477E0,7.4753784E1,1.7696623E1,7.0889893E0,4.340281E0,1.6959341E1,3.101118E0],"tree_param":{"num_deleted":"0","num_feature":"22","num_nodes":"29","size_leaf_vector":"1"}},{"base_weights":[-1.9551719E-2,-2.2564238E-1,5.7290816E-1,-3.9090887E-1,8.9730196E-2,5.1244324E-1,8.382069E-2,-5.0830066E-1,1.10233E-1,4.4119698E-1,8.2198985E-2,-3.6323494E-1,-5.2351743E-2,-2.7973006E-2,8.4121265E-2,3.4717682E-1,7.9932325E-2,-4.607234E-2,-1.070295E-3,-1.7017882E-1,5.8613207E-2,2.3001549E-1,7.854215E-2,1.5763486E-3,-2.6309544E-2,1.2230816E-2,7.2740905E-2],"categories":[],"categories_nodes":[],"categories_segments":[],"categories_sizes":[],"default_left":[0,0,0,0,0,0,0,0,0,0,0,0,0,0,0,0,0,0,0,0,0,0,0,0,0,0,0],"id":32,"left_children":[1,3,5,7,-1,9,-1,11,13,15,-1,17,-1,19,-1,21,-1,-1,-1,23,-1,25,-1,-1,-1,-1,-1],"loss_changes":[2.6799625E1,3.055928E1,4.792862E-1,8.444506E0,0E0,7.116451E-1,0E0,6.52504E-2,2.8405054E0,1.1284952E0,0E0,4.8484182E-1,0E0,2.2321408E0,0E0,1.6083026E0,0E0,0E0,0E0,3.6008483E-1,0E0,1.4596186E0,0E0,0E0,0E0,0E0,0E0],"parents":[2147483647,0,0,1,1,2,2,3,3,5,5,7,7,8,8,9,9,11,11,13,13,15,15,19,19,21,21],"right_children":[2,4,6,8,-1,10,-1,12,14,16,-1,18,-1,20,-1,22,-1,-1,-1,24,-1,26,-1,-1,-1,-1,-1],"split_conditions":[1E0,1E0,1E0,1E0,8.9730196E-2,1E0,8.382069E-2,5.524956E-1,1E0,1E0,8.2198985E-2,5.3891045E-1,-5.2351743E-2,1E0,8.4121265E-2,1E0,7.9932325E-2,-4.607234E-2,-1.070295E-3,6.076948E-1,5.8613207E-2,1E0,7.854215E-2,1.5763486E-3,-2.6309544E-2,1.2230816E-2,7.2740905E-2],"split_indices":[11,13,0,9,0,3,0,16,5,6,0,16,0,6,0,4,0,0,0,16,0,5,0,0,0,0,0],"split_type":[0,0,0,0,0,0,0,0,0,0,0,0,0,0,0,0,0,0,0,0,0,0,0,0,0,0,0],"sum_hessian":[2.1742961E2,1.6177454E2,5.5655083E1,1.415885E2,2.0186037E1,4.771239E1,7.942691E0,1.1470477E2,2.6883718E1,4.0756947E1,6.955446E0,1.3250928E1,1.0145385E2,2.3417847E1,3.4658701E0,3.384177E1,6.915176E0,1.013995E1,3.1109786E0,1.9601654E1,3.8161924E0,2.7906136E1,5.935633E0,6.808005E0,1.279365E1,2.3963003E1,3.943133E0],"tree_param":{"num_deleted":"0","num_feature":"22","num_nodes":"27","size_leaf_vector":"1"}},{"base_weights":[8.834383E-2,1.9958276E-1,-5.7824176E-2,2.888854E-1,-5.7261925E-2,3.7685245E-1,-2.6009056E-1,4.0698367E-1,-5.0797414E-2,4.848544E-2,-3.6809754E-1,5.3231263E-1,2.767484E-1,-4.5981833E-1,-1.958346E-1,3.0589784E-2,6.0193438E-2,3.7402768E-2,-1.3274421E-2,-2.8179497E-2,-5.5362303E-2,2.5505437E-2,-4.1357845E-2],"categories":[],"categories_nodes":[],"categories_segments":[],"categories_sizes":[],"default_left":[0,0,0,0,0,0,0,0,0,0,0,0,0,0,0,0,0,0,0,0,0,0,0],"id":33,"left_children":[1,3,-1,5,-1,7,9,11,-1,-1,13,15,17,19,21,-1,-1,-1,-1,-1,-1,-1,-1],"loss_changes":[1.9455774E1,1.5630915E1,0E0,9.837782E0,0E0,4.852125E0,2.467227E0,2.612074E0,0E0,0E0,3.1147122E-1,1.1568356E0,3.4351802E0,1.0852957E-1,1.1433653E0,0E0,0E0,0E0,0E0,0E0,0E0,0E0,0E0],"parents":[2147483647,0,0,1,1,3,3,5,5,6,6,7,7,10,10,11,11,12,12,13,13,14,14],"right_children":[2,4,-1,6,-1,8,10,12,-1,-1,14,16,18,20,22,-1,-1,-1,-1,-1,-1,-1,-1],"split_conditions":[1E0,1E0,-5.7824176E-2,1E0,-5.7261925E-2,1E0,1E0,3E-2,-5.0797414E-2,4.848544E-2,8.3500886E-1,6.224843E-1,9.020101E-1,1E0,8.854154E-1,3.0589784E-2,6.0193438E-2,3.7402768E-2,-1.3274421E-2,-2.8179497E-2,-5.5362303E-2,2.5505437E-2,-4.1357845E-2],"split_indices":[9,11,0,1,0,13,17,15,0,0,10,16,10,7,10,0,0,0,0,0,0,0,0],"split_type":[0,0,0,0,0,0,0,0,0,0,0,0,0,0,0,0,0,0,0,0,0,0,0],"sum_hessian":[2.598267E2,2.2326854E2,3.655817E1,2.0068576E2,2.2582767E1,1.7323965E2,2.7446106E1,1.6805682E2,5.1828423E0,3.0336103E0,2.4412497E1,8.4068306E1,8.398851E1,1.4841116E1,9.571381E0,2.103964E1,6.3028667E1,6.7936165E1,1.6052347E1,6.50325E0,8.337865E0,3.06117E0,6.5102105E0],"tree_param":{"num_deleted":"0","num_feature":"22","num_nodes":"23","size_leaf_vector":"1"}},{"base_weights":[-2.6508292E-2,9.1949776E-2,-5.65116E-2,1.7083246E-1,-5.5957228E-2,2.3465247E-1,-5.4671165E-2,2.6304126E-1,-5.0117094E-2,6.638564E-2,3.623571E-1,-1.8727927E-2,2.5322963E-2,4.740612E-2,1.451341E-2],"categories":[],"categories_nodes":[],"categories_segments":[],"categories_sizes":[],"default_left":[0,0,0,0,0,0,0,0,0,0,0,0,0,0,0],"id":34,"left_children":[1,3,-1,5,-1,7,-1,9,-1,11,13,-1,-1,-1,-1],"loss_changes":[1.43620825E1,9.588679E0,0E0,7.708518E0,0E0,3.3218012E0,0E0,2.8605328E0,0E0,2.4543643E0,2.3069248E0,0E0,0E0,0E0,0E0],"parents":[2147483647,0,0,1,1,3,3,5,5,7,7,9,9,10,10],"right_children":[2,4,-1,6,-1,8,-1,10,-1,12,14,-1,-1,-1,-1],"split_conditions":[1E0,1E0,-5.65116E-2,1E0,-5.5957228E-2,1E0,-5.4671165E-2,2E-2,-5.0117094E-2,8.0045444E-1,7.56105E-1,-1.8727927E-2,2.5322963E-2,4.740612E-2,1.451341E-2],"split_indices":[1,9,0,11,0,13,0,15,0,10,16,0,0,0,0],"split_type":[0,0,0,0,0,0,0,0,0,0,0,0,0,0,0],"sum_hessian":[2.2328802E2,1.8371268E2,3.9575356E1,1.6453008E2,1.9182594E1,1.5170966E2,1.2820429E1,1.4669263E2,5.0170245E0,4.978386E1,9.690876E1,2.1115078E1,2.8668781E1,6.3217587E1,3.3691177E1],"tree_param":{"num_deleted":"0","num_feature":"22","num_nodes":"15","size_leaf_vector":"1"}},{"base_weights":[-1.4163139E-2,-5.059693E-1,7.3224884E-1,-5.8298737E-2,-1.6219997E-1,2.8366182E-2,7.4603623E-1,-2.4777879E-1,2.2554701E-2,5.5063313E-1,7.765697E-1,-3.4784704E-1,4.208471E-3,6.875198E-2,1.6991463E-2,8.18789E-2,4.4733286E-1,-4.8958707E-1,7.1385964E-3,7.340028E-2,-9.92158E-3,-5.5613775E-2,-2.1648597E-2],"categories":[],"categories_nodes":[],"categories_segments":[],"categories_sizes":[],"default_left":[0,0,0,0,0,0,0,0,0,0,0,0,0,0,0,0,0,0,0,0,0,0,0],"id":35,"left_children":[1,3,5,-1,7,-1,9,11,-1,13,15,17,-1,-1,-1,-1,19,21,-1,-1,-1,-1,-1],"loss_changes":[8.313168E1,3.5193863E0,3.4474564E-1,0E0,9.308814E-1,0E0,8.943176E-2,6.550306E-1,0E0,6.7264795E-1,6.4164734E-1,1.0165964E0,0E0,0E0,0E0,0E0,1.7094648E0,1.06303215E-1,0E0,0E0,0E0,0E0,0E0],"parents":[2147483647,0,0,1,1,2,2,4,4,6,6,7,7,9,9,10,10,11,11,16,16,17,17],"right_children":[2,4,6,-1,8,-1,10,12,-1,14,16,18,-1,-1,-1,-1,20,22,-1,-1,-1,-1,-1],"split_conditions":[1E0,1E0,5.048348E-1,-5.8298737E-2,1E0,2.8366182E-2,6.949535E-1,9E-2,2.2554701E-2,6.655066E-1,9E-2,1E0,4.208471E-3,6.875198E-2,1.6991463E-2,8.18789E-2,8.322778E-1,7.713496E-1,7.1385964E-3,7.340028E-2,-9.92158E-3,-5.5613775E-2,-2.1648597E-2],"split_indices":[1,9,16,0,0,0,10,15,0,10,15,6,0,0,0,0,10,16,0,0,0,0,0],"split_type":[0,0,0,0,0,0,0,0,0,0,0,0,0,0,0,0,0,0,0,0,0,0,0],"sum_hessian":[2.2445206E2,1.3549644E2,8.895562E1,1.1012759E2,2.5368853E1,3.295852E0,8.565977E1,2.1077795E1,4.291057E0,1.4148474E1,7.151129E1,1.5519896E1,5.5579E0,9.814013E0,4.334461E0,6.206548E1,9.445814E0,1.1473098E1,4.0467978E0,5.970993E0,3.4748206E0,8.391768E0,3.0813296E0],"tree_param":{"num_deleted":"0","num_feature":"22","num_nodes":"23","size_leaf_vector":"1"}},{"base_weights":[-1.5212288E-2,-1.335088E-1,8.5495375E-2,-2.8174663E-1,3.4280157E-1,8.1311174E-2,-3.330793E-1,7.428248E-1,-3.557722E-1,-2.1442556E-1,-4.072695E-1,8.413664E-2,4.3500242E-1,-4.7045696E-1,-1.2084778E-2,-2.6760662E-1,1.1970228E-1,-4.2561617E-1,-3.1167828E-3,1.9035855E-2,6.1072815E-2,-2.291087E-2,-5.3377926E-2,1.00755645E-2,-3.0430758E-2,4.5439392E-2,-2.8896322E-2,-5.631854E-2,-3.7910774E-2],"categories":[],"categories_nodes":[],"categories_segments":[],"categories_sizes":[],"default_left":[0,0,0,0,0,0,0,0,0,0,0,0,0,0,0,0,0,0,0,0,0,0,0,0,0,0,0,0,0],"id":36,"left_children":[1,3,-1,5,7,-1,9,11,13,15,17,-1,19,21,-1,23,25,27,-1,-1,-1,-1,-1,-1,-1,-1,-1,-1,-1],"loss_changes":[2.1654999E1,1.3164733E1,0E0,8.234746E0,1.2666304E1,0E0,1.1104431E0,4.9985695E-1,3.9675093E-1,9.9971676E-1,5.5673695E-1,0E0,2.70329E-1,4.5321703E-2,0E0,6.699815E-1,1.2485732E0,2.8993034E-1,0E0,0E0,0E0,0E0,0E0,0E0,0E0,0E0,0E0,0E0,0E0],"parents":[2147483647,0,0,1,1,3,3,4,4,6,6,7,7,8,8,9,9,10,10,12,12,13,13,15,15,16,16,17,17],"right_children":[2,4,-1,6,8,-1,10,12,14,16,18,-1,20,22,-1,24,26,28,-1,-1,-1,-1,-1,-1,-1,-1,-1,-1,-1],"split_conditions":[1E0,1E0,8.5495375E-2,6.0627997E-1,1E0,8.1311174E-2,7.80567E-1,9.101802E-1,7E-2,7.61174E-1,3.2E-1,8.413664E-2,9.7600377E-1,7.2218317E-1,-1.2084778E-2,5.2429044E-1,5E-2,8.292476E-1,-3.1167828E-3,1.9035855E-2,6.1072815E-2,-2.291087E-2,-5.3377926E-2,1.00755645E-2,-3.0430758E-2,4.5439392E-2,-2.8896322E-2,-5.631854E-2,-3.7910774E-2],"split_indices":[13,9,0,10,1,0,10,10,15,10,18,0,10,10,0,16,18,10,0,0,0,0,0,0,0,0,0,0,0],"split_type":[0,0,0,0,0,0,0,0,0,0,0,0,0,0,0,0,0,0,0,0,0,0,0,0,0,0,0,0,0],"sum_hessian":[2.0826128E2,1.8408238E2,2.4178888E1,1.4070157E2,4.338081E1,5.636766E0,1.350648E2,2.7544628E1,1.5836184E1,5.345826E1,8.1606544E1,1.9552197E1,7.9924307E0,9.967626E0,5.8685575E0,4.6289703E1,7.1685557E0,7.768532E1,3.9212284E0,4.2119126E0,3.7805183E0,3.0314848E0,6.936141E0,4.035967E0,4.225374E1,3.8794448E0,3.289111E0,1.6820866E1,6.0864452E1],"tree_param":{"num_deleted":"0","num_feature":"22","num_nodes":"29","size_leaf_vector":"1"}},{"base_weights":[7.5216815E-2,1.8452196E-1,-5.7009906E-2,2.668953E-1,-5.6236446E-2,3.465497E-1,-2.1865924E-1,3.7755305E-1,-5.027175E-2,3.0572906E-2,-3.1180525E-1,-5.432688E-2,3.9982668E-1,-1.8176425E-1,-5.390336E-2,4.2189147E-2,-1.9692153E-2,-4.3066666E-2,7.009984E-3],"categories":[],"categories_nodes":[],"categories_segments":[],"categories_sizes":[],"default_left":[0,0,0,0,0,0,0,0,0,0,0,0,0,0,0,0,0,0,0],"id":37,"left_children":[1,3,-1,5,-1,7,9,11,-1,-1,13,-1,15,17,-1,-1,-1,-1,-1],"loss_changes":[1.798257E1,1.3531036E1,0E0,7.6783047E0,0E0,4.646223E0,1.4783714E0,3.5780258E0,0E0,0E0,6.2713456E-1,0E0,2.1972942E0,1.1031902E0,0E0,0E0,0E0,0E0,0E0],"parents":[2147483647,0,0,1,1,3,3,5,5,6,6,7,7,10,10,12,12,13,13],"right_children":[2,4,-1,6,-1,8,10,12,-1,-1,14,-1,16,18,-1,-1,-1,-1,-1],"split_conditions":[1E0,1E0,-5.7009906E-2,1E0,-5.6236446E-2,1E0,1E0,6.1449695E-1,-5.027175E-2,3.0572906E-2,1E-1,-5.432688E-2,3.4E-1,7.901944E-1,-5.390336E-2,4.2189147E-2,-1.9692153E-2,-4.3066666E-2,7.009984E-3],"split_indices":[9,11,0,1,0,13,17,10,0,0,18,0,18,10,0,0,0,0,0],"split_type":[0,0,0,0,0,0,0,0,0,0,0,0,0,0,0,0,0,0,0],"sum_hessian":[2.5244916E2,2.164931E2,3.595606E1,1.9556688E2,2.0926216E1,1.6825175E2,2.731513E1,1.6286176E2,5.389997E0,3.7758436E0,2.3539288E1,3.2939672E0,1.5956778E2,1.611609E1,7.4231963E0,1.541607E2,5.407086E0,7.748645E0,8.367446E0],"tree_param":{"num_deleted":"0","num_feature":"22","num_nodes":"19","size_leaf_vector":"1"}},{"base_weights":[-2.8700024E-2,7.8895144E-2,-5.578148E-2,1.5075497E-1,-5.4874133E-2,1.890465E-1,-1.8992344E-1,-4.725873E-2,2.0734176E-1,-3.5125986E-1,7.9735205E-2,1.6667487E-1,4.4626993E-1,-4.653051E-2,-5.6651155E-3,1.9314924E-2,-5.235562E-3,1.1702399E-2,6.996505E-2,6.892633E-2,-1.495357E-2],"categories":[],"categories_nodes":[],"categories_segments":[],"categories_sizes":[],"default_left":[0,0,0,0,0,0,0,0,0,0,0,0,0,0,0,0,0,0,0,0,0],"id":38,"left_children":[1,3,-1,5,-1,7,9,-1,11,13,15,17,19,-1,-1,-1,-1,-1,-1,-1,-1],"loss_changes":[1.2659286E1,8.427566E0,0E0,2.2118158E0,0E0,1.9191084E0,7.8293765E-1,0E0,1.3548484E0,3.4463036E-1,1.1963235E-1,3.2866964E0,3.1142135E0,0E0,0E0,0E0,0E0,0E0,0E0,0E0,0E0],"parents":[2147483647,0,0,1,1,3,3,5,5,6,6,8,8,9,9,10,10,11,11,12,12],"right_children":[2,4,-1,6,-1,8,10,-1,12,14,16,18,20,-1,-1,-1,-1,-1,-1,-1,-1],"split_conditions":[1E0,1E0,-5.578148E-2,8.354001E-1,-5.4874133E-2,5.9170073E-1,8.6057436E-1,-4.725873E-2,7.884109E-1,5E-2,8.519986E-1,1.2E-1,8.521579E-1,-4.653051E-2,-5.6651155E-3,1.9314924E-2,-5.235562E-3,1.1702399E-2,6.996505E-2,6.892633E-2,-1.495357E-2],"split_indices":[1,11,0,16,0,10,10,0,16,15,16,15,10,0,0,0,0,0,0,0,0],"split_type":[0,0,0,0,0,0,0,0,0,0,0,0,0,0,0,0,0,0,0,0,0],"sum_hessian":[2.2059203E2,1.8402213E2,3.6569897E1,1.6579913E2,1.8222994E1,1.4944673E2,1.6352411E1,3.3531048E0,1.4609363E2,1.0041803E1,6.3106084E0,1.2629509E2,1.979853E1,6.82168E0,3.2201235E0,3.1466386E0,3.1639698E0,1.1664798E2,9.64711E0,1.3951637E1,5.846893E0],"tree_param":{"num_deleted":"0","num_feature":"22","num_nodes":"21","size_leaf_vector":"1"}},{"base_weights":[-4.9840894E-2,-5.151973E-1,6.439835E-1,-5.7558417E-2,-1.8985848E-1,5.697683E-1,8.321589E-2,-3.701794E-1,2.9974658E-2,4.840705E-3,6.128915E-1,-5.6236787E-3,-4.6441042E-1,6.784772E-1,4.1864622E-1,-5.347545E-2,-2.2058746E-2,7.5400627E-1,3.793043E-1,2.0449132E-1,8.028416E-2,8.009264E-2,3.552496E-2,1.005623E-2,6.310739E-2,-9.243015E-4,3.8345642E-2],"categories":[],"categories_nodes":[],"categories_segments":[],"categories_sizes":[],"default_left":[0,0,0,0,0,0,0,0,0,0,0,0,0,0,0,0,0,0,0,0,0,0,0,0,0,0,0],"id":39,"left_children":[1,3,5,-1,7,9,-1,11,-1,-1,13,-1,15,17,19,-1,-1,21,23,25,-1,-1,-1,-1,-1,-1,-1],"loss_changes":[6.2335793E1,2.15983E0,6.087189E-1,0E0,1.8390695E0,1.2918339E0,0E0,4.1031647E-1,0E0,0E0,4.064827E-1,0E0,7.429409E-2,5.9321404E-1,1.176358E0,0E0,0E0,2.7777863E-1,6.281731E-1,4.5503026E-1,0E0,0E0,0E0,0E0,0E0,0E0,0E0],"parents":[2147483647,0,0,1,1,2,2,4,4,5,5,7,7,10,10,12,12,13,13,14,14,17,17,18,18,19,19],"right_children":[2,4,6,-1,8,10,-1,12,-1,-1,14,-1,16,18,20,-1,-1,22,24,26,-1,-1,-1,-1,-1,-1,-1],"split_conditions":[1E0,1E0,1.4E-1,-5.7558417E-2,9E-2,5.25559E-1,8.321589E-2,6.174146E-1,2.9974658E-2,4.840705E-3,1E0,-5.6236787E-3,7.713496E-1,1E0,5E-2,-5.347545E-2,-2.2058746E-2,9E-2,7.412433E-1,6.6346735E-1,8.028416E-2,8.009264E-2,3.552496E-2,1.005623E-2,6.310739E-2,-9.243015E-4,3.8345642E-2],"split_indices":[1,9,18,0,15,16,0,16,0,0,8,0,16,11,15,0,0,15,16,16,0,0,0,0,0,0,0],"split_type":[0,0,0,0,0,0,0,0,0,0,0,0,0,0,0,0,0,0,0,0,0,0,0,0,0,0,0],"sum_hessian":[1.9103685E2,1.1449867E2,7.6538185E1,9.592468E1,1.8573984E1,5.7778557E1,1.875963E1,1.3752777E1,4.821208E0,4.5760775E0,5.3202477E1,3.5436046E0,1.0209172E1,3.790963E1,1.5292848E1,6.997231E0,3.2119412E0,2.9054293E1,8.855337E0,1.0803251E1,4.489597E0,2.5093126E1,3.9611669E0,4.866692E0,3.988645E0,5.355564E0,5.4476867E0],"tree_param":{"num_deleted":"0","num_feature":"22","num_nodes":"27","size_leaf_vector":"1"}},{"base_weights":[-1.0717068E-2,-2.2622778E-1,6.123301E-1,-3.7905765E-1,8.11579E-2,8.261019E-2,1.3658005E-1,-5.172056E-2,1.5262294E-1,-3.5450023E-2,3.3416742E-1,6.6186935E-1,-5.4673966E-2,5.5959243E-2,1.9882067E-1,4.4140255E-1,7.989027E-2,3.0393437E-2,-2.7023067E-3,7.168713E-2,1.3245559E-4],"categories":[],"categories_nodes":[],"categories_segments":[],"categories_sizes":[],"default_left":[0,0,0,0,0,0,0,0,0,0,0,0,0,0,0,0,0,0,0,0,0],"id":40,"left_children":[1,3,5,7,-1,-1,9,-1,11,-1,13,15,-1,-1,17,19,-1,-1,-1,-1,-1],"loss_changes":[2.7869957E1,2.4762024E1,5.312788E0,1.0000086E1,0E0,0E0,1.8395623E0,0E0,1.0558375E1,0E0,2.903583E-1,1.6153336E-1,0E0,0E0,2.402887E-1,1.0607989E0,0E0,0E0,0E0,0E0,0E0],"parents":[2147483647,0,0,1,1,2,2,3,3,6,6,8,8,10,10,11,11,14,14,15,15],"right_children":[2,4,6,8,-1,-1,10,-1,12,-1,14,16,-1,-1,18,20,-1,-1,-1,-1,-1],"split_conditions":[1E0,1E0,1E0,1E0,8.11579E-2,8.261019E-2,3E-2,-5.172056E-2,1E0,-3.5450023E-2,6E-2,5E-2,-5.4673966E-2,5.5959243E-2,1E0,2E-2,7.989027E-2,3.0393437E-2,-2.7023067E-3,7.168713E-2,1.3245559E-4],"split_indices":[11,13,1,9,0,0,18,0,1,0,18,18,0,0,7,18,0,0,0,0,0],"split_type":[0,0,0,0,0,0,0,0,0,0,0,0,0,0,0,0,0,0,0,0,0],"sum_hessian":[2.0552968E2,1.5318144E2,5.234824E1,1.3407239E2,1.9109064E1,3.5610657E1,1.6737585E1,1.064424E2,2.762998E1,4.574373E0,1.2163213E1,1.6019133E1,1.1610847E1,3.387198E0,8.776014E0,7.758297E0,8.260835E0,5.7527556E0,3.023259E0,4.3847065E0,3.3735905E0],"tree_param":{"num_deleted":"0","num_feature":"22","num_nodes":"21","size_leaf_vector":"1"}},{"base_weights":[8.013984E-2,1.7534344E-1,-5.6102186E-2,2.5310406E-1,-5.582803E-2,3.2255885E-1,-2.1737838E-1,5.647397E-2,4.10908E-1,-4.603628E-1,-5.6671474E-2,2.0476586E-1,-3.97741E-1,5.2860725E-1,2.8863683E-1,-5.3067155E-2,-2.2014188E-2,1.22972056E-1,-4.9248796E-2,5.607712E-3,9.9631295E-2,1.0427623E-2,-6.271576E-2,4.694381E-2,9.010629E-2,3.9717086E-2,-6.661389E-3,4.039861E-2,-2.1367256E-2],"categories":[],"categories_nodes":[],"categories_segments":[],"categories_sizes":[],"default_left":[0,0,0,0,0,0,0,0,0,0,0,0,0,0,0,0,0,0,0,0,0,0,0,0,0,0,0,0,0],"id":41,"left_children":[1,3,-1,5,-1,7,9,11,13,15,17,19,21,23,25,-1,-1,27,-1,-1,-1,-1,-1,-1,-1,-1,-1,-1,-1],"loss_changes":[1.5383112E1,1.2622589E1,0E0,6.55686E0,0E0,4.052599E0,9.943713E-1,3.070495E0,1.7182865E0,5.6512594E-2,1.3813254E0,3.959218E0,1.3624603E0,1.0102539E0,2.5698342E0,0E0,0E0,1.292111E0,0E0,0E0,0E0,0E0,0E0,0E0,0E0,0E0,0E0,0E0,0E0],"parents":[2147483647,0,0,1,1,3,3,5,5,6,6,7,7,8,8,9,9,10,10,11,11,12,12,13,13,14,14,17,17],"right_children":[2,4,-1,6,-1,8,10,12,14,16,18,20,22,24,26,-1,-1,28,-1,-1,-1,-1,-1,-1,-1,-1,-1,-1,-1],"split_conditions":[1E0,1E0,-5.6102186E-2,1E0,-5.582803E-2,6.222651E-1,3E-2,9.278305E-1,3E-2,7.3304176E-1,1E-1,8.654453E-1,5.3226364E-1,9.701473E-1,9.037341E-1,-5.3067155E-2,-2.2014188E-2,6.9739103E-1,-4.9248796E-2,5.607712E-3,9.9631295E-2,1.0427623E-2,-6.271576E-2,4.694381E-2,9.010629E-2,3.9717086E-2,-6.661389E-3,4.039861E-2,-2.1367256E-2],"split_indices":[9,11,0,1,0,16,15,10,15,16,18,10,16,10,10,0,0,16,0,0,0,0,0,0,0,0,0,0,0],"split_type":[0,0,0,0,0,0,0,0,0,0,0,0,0,0,0,0,0,0,0,0,0,0,0,0,0,0,0,0,0],"sum_hessian":[2.494016E2,2.1778941E2,3.1612177E1,1.9750937E2,2.0280056E1,1.7237672E2,2.5132643E1,4.3376648E1,1.2900008E2,9.262854E0,1.586979E1,3.3114597E1,1.0262051E1,6.4035614E1,6.4964455E1,6.2302604E0,3.032593E0,1.1745947E1,4.123843E0,2.8779362E1,4.335235E0,3.3898153E0,6.872236E0,5.7207832E1,6.8277807E0,4.9671215E1,1.5293242E1,6.2929068E0,5.4530406E0],"tree_param":{"num_deleted":"0","num_feature":"22","num_nodes":"29","size_leaf_vector":"1"}},{"base_weights":[-1.2228898E-2,9.68306E-2,-5.521835E-2,1.6814348E-1,-5.4732718E-2,2.2500588E-1,-5.342974E-2,1.696009E-1,4.5592558E-1,1.4680515E-1,7.43899E-2,-1.9194732E-3,5.67679E-1,-3.682292E-2,1.706305E-2,7.423323E-2,7.1542743E-3],"categories":[],"categories_nodes":[],"categories_segments":[],"categories_sizes":[],"default_left":[0,0,0,0,0,0,0,0,0,0,0,0,0,0,0,0,0],"id":42,"left_children":[1,3,-1,5,-1,7,-1,9,11,13,-1,-1,15,-1,-1,-1,-1],"loss_changes":[1.2863523E1,8.444798E0,0E0,6.6896877E0,0E0,1.8783789E0,0E0,1.5255773E0,1.5499816E0,1.5519226E0,0E0,0E0,1.9831815E0,0E0,0E0,0E0,0E0],"parents":[2147483647,0,0,1,1,3,3,5,5,7,7,8,8,9,9,12,12],"right_children":[2,4,-1,6,-1,8,-1,10,12,14,-1,-1,16,-1,-1,-1,-1],"split_conditions":[1E0,1E0,-5.521835E-2,1E0,-5.4732718E-2,9.4904417E-1,-5.342974E-2,3.6E-1,2E-2,6.168785E-1,7.43899E-2,-1.9194732E-3,7.6050055E-1,-3.682292E-2,1.706305E-2,7.423323E-2,7.1542743E-3],"split_indices":[1,9,0,11,0,10,0,18,18,10,0,0,16,0,0,0,0],"split_type":[0,0,0,0,0,0,0,0,0,0,0,0,0,0,0,0,0],"sum_hessian":[2.1653554E2,1.8083194E2,3.5703587E1,1.6347325E2,1.735869E1,1.5185992E2,1.16133375E1,1.2387325E2,2.7986668E1,1.2035172E2,3.5215263E0,5.4869804E0,2.2499687E1,4.682142E0,1.15669586E2,1.6274427E1,6.2252603E0],"tree_param":{"num_deleted":"0","num_feature":"22","num_nodes":"17","size_leaf_vector":"1"}},{"base_weights":[-4.5653827E-2,-4.9790487E-1,6.1579865E-1,-4.4034955E-1,-5.648927E-2,5.03142E-1,6.935318E-2,-4.7573858E-1,-2.4776499E-1,5.903167E-1,-5.6954557E-3,-5.1033616E-1,-2.9660434E-1,2.528275E-3,-3.9919302E-1,2.5098378E-2,6.2088884E-2,-3.695195E-1,-5.6714475E-2,-1.339921E-1,-4.689358E-2,-4.7419127E-2,-2.1117685E-2,-4.6699475E-2,3.3466269E-3,1.6255137E-3,-2.4430338E-2],"categories":[],"categories_nodes":[],"categories_segments":[],"categories_sizes":[],"default_left":[0,0,0,0,0,0,0,0,0,0,0,0,0,0,0,0,0,0,0,0,0,0,0,0,0,0,0],"id":43,"left_children":[1,3,5,7,-1,9,-1,11,13,15,-1,17,19,-1,21,-1,-1,23,-1,25,-1,-1,-1,-1,-1,-1,-1],"loss_changes":[5.9959797E1,2.1001434E-1,3.6410522E-1,3.492298E-1,0E0,1.8346806E0,0E0,2.0072079E-1,5.3627133E-1,1.7621422E-1,0E0,1.602211E-1,2.6178265E-1,0E0,1.6132116E-2,0E0,0E0,6.5032935E-1,0E0,1.2595606E-1,0E0,0E0,0E0,0E0,0E0,0E0,0E0],"parents":[2147483647,0,0,1,1,2,2,3,3,5,5,7,7,8,8,9,9,11,11,12,12,14,14,17,17,19,19],"right_children":[2,4,6,8,-1,10,-1,12,14,16,-1,18,20,-1,22,-1,-1,24,-1,26,-1,-1,-1,-1,-1,-1,-1],"split_conditions":[1E0,1E0,6.717033E-1,1E0,-5.648927E-2,6.494316E-1,6.935318E-2,2E-1,6.174146E-1,5.048348E-1,-5.6954557E-3,3E-2,2.8E-1,2.528275E-3,7.6986605E-1,2.5098378E-2,6.2088884E-2,7.8473866E-1,-5.6714475E-2,6.93045E-1,-4.689358E-2,-4.7419127E-2,-2.1117685E-2,-4.6699475E-2,3.3466269E-3,1.6255137E-3,-2.4430338E-2],"split_indices":[1,7,16,6,0,16,0,18,16,16,0,18,18,0,16,0,0,16,0,16,0,0,0,0,0,0,0],"split_type":[0,0,0,0,0,0,0,0,0,0,0,0,0,0,0,0,0,0,0,0,0,0,0,0,0,0,0],"sum_hessian":[1.984139E2,1.17989136E2,8.042477E1,6.753623E1,5.0452904E1,3.5887127E1,4.453764E1,5.5810333E1,1.1725897E1,3.1007149E1,4.879978E0,4.5226494E1,1.0583838E1,4.4802904E0,7.2456064E0,3.3238537E0,2.7683294E1,1.5157898E1,3.0068596E1,6.3600307E0,4.223808E0,4.0914717E0,3.1541348E0,1.207768E1,3.0802183E0,3.0535913E0,3.3064394E0],"tree_param":{"num_deleted":"0","num_feature":"22","num_nodes":"27","size_leaf_vector":"1"}},{"base_weights":[-7.1724188E-3,-1.9753651E-1,5.486149E-1,-3.48867E-1,7.8195564E-2,7.814127E-2,8.474123E-2,5.135944E-1,-4.161726E-1,8.1176095E-2,-1.3378796E-1,2.360936E-2,7.8451455E-2,-3.2341722E-1,-5.4534018E-2,1.6985608E-2,-2.361001E-1,6.131119E-2,-5.0251007E-2,9.205008E-3,-4.2396303E-2,4.7824517E-2,-5.2773006E-2],"categories":[],"categories_nodes":[],"categories_segments":[],"categories_sizes":[],"default_left":[0,0,0,0,0,0,0,0,0,0,0,0,0,0,0,0,0,0,0,0,0,0,0],"id":44,"left_children":[1,3,5,7,-1,-1,9,11,13,-1,15,-1,-1,17,-1,-1,19,21,-1,-1,-1,-1,-1],"loss_changes":[2.0491365E1,2.1652561E1,5.2701254E0,7.506133E0,0E0,0E0,2.910248E0,5.321269E-1,1.2264137E0,0E0,4.879963E-1,0E0,0E0,4.8956294E0,0E0,0E0,7.296056E-1,5.9791436E0,0E0,0E0,0E0,0E0,0E0],"parents":[2147483647,0,0,1,1,2,2,3,3,6,6,7,7,8,8,10,10,13,13,16,16,17,17],"right_children":[2,4,6,8,-1,-1,10,12,14,-1,16,-1,-1,18,-1,-1,20,22,-1,-1,-1,-1,-1],"split_conditions":[1E0,1E0,1E0,6.0627997E-1,7.8195564E-2,7.814127E-2,7.5126874E-1,1E0,1E0,8.1176095E-2,5.6064856E-1,2.360936E-2,7.8451455E-2,1E0,-5.4534018E-2,1.6985608E-2,8.322778E-1,1E0,-5.0251007E-2,9.205008E-3,-4.2396303E-2,4.7824517E-2,-5.2773006E-2],"split_indices":[11,13,1,10,0,0,10,7,7,0,16,0,0,8,0,0,10,1,0,0,0,0,0],"split_type":[0,0,0,0,0,0,0,0,0,0,0,0,0,0,0,0,0,0,0,0,0,0,0],"sum_hessian":[1.9165234E2,1.432366E2,4.841574E1,1.2462587E2,1.8610735E1,3.1781477E1,1.6634264E1,8.5416355E0,1.16084236E2,3.2170103E0,1.3417254E1,5.144069E0,3.3975666E0,6.960479E1,4.6479443E1,3.215136E0,1.0202119E1,2.2318249E1,4.728654E1,3.8999252E0,6.302193E0,1.3178421E1,9.139828E0],"tree_param":{"num_deleted":"0","num_feature":"22","num_nodes":"23","size_leaf_vector":"1"}},{"base_weights":[5.7351183E-2,1.399649E-1,-5.5442255E-2,2.072592E-1,-5.484245E-2,2.7792513E-1,-3.0655125E-1,3.280921E-1,-7.51494E-2,-3.4935224E-1,-3.2929406E-3,-5.245758E-2,3.4900516E-1,5.00381E-2,-2.2980957E-1,-1.7205277E-1,-4.7135037E-1,5.0347853E-2,2.3041038E-2,-3.6814254E-2,1.0432056E-2,2.5926565E-3,-4.62616E-2,-5.337089E-2,-2.1674804E-2],"categories":[],"categories_nodes":[],"categories_segments":[],"categories_sizes":[],"default_left":[0,0,0,0,0,0,0,0,0,0,0,0,0,0,0,0,0,0,0,0,0,0,0,0,0],"id":45,"left_children":[1,3,-1,5,-1,7,9,11,13,15,-1,-1,17,-1,19,21,23,-1,-1,-1,-1,-1,-1,-1,-1],"loss_changes":[1.2520064E1,1.0198309E1,0E0,7.3119287E0,0E0,3.1331415E0,2.7588797E-1,2.9264832E0,2.130823E0,3.756528E-1,0E0,0E0,2.645979E0,0E0,8.951297E-1,5.9772867E-1,7.379341E-2,0E0,0E0,0E0,0E0,0E0,0E0,0E0,0E0],"parents":[2147483647,0,0,1,1,3,3,5,5,6,6,7,7,8,8,9,9,12,12,14,14,15,15,16,16],"right_children":[2,4,-1,6,-1,8,10,12,14,16,-1,-1,18,-1,20,22,24,-1,-1,-1,-1,-1,-1,-1,-1],"split_conditions":[1E0,1E0,-5.5442255E-2,1E0,-5.484245E-2,1E-1,9E-2,6.1449695E-1,2E-2,1E0,-3.2929406E-3,-5.245758E-2,7.984904E-1,5.00381E-2,7.674638E-1,4E-2,5E-2,5.0347853E-2,2.3041038E-2,-3.6814254E-2,1.0432056E-2,2.5926565E-3,-4.62616E-2,-5.337089E-2,-2.1674804E-2],"split_indices":[9,11,0,1,0,15,15,10,18,7,0,0,10,0,16,15,15,0,0,0,0,0,0,0,0],"split_type":[0,0,0,0,0,0,0,0,0,0,0,0,0,0,0,0,0,0,0,0,0,0,0,0,0],"sum_hessian":[2.4518602E2,2.1669484E2,2.8491182E1,1.9803467E2,1.8660181E1,1.7449492E2,2.353974E1,1.528481E2,2.1646822E1,2.0116299E1,3.423441E0,3.0825572E0,1.4976555E2,4.1115026E0,1.7535318E1,9.18217E0,1.0934128E1,6.3634415E1,8.613113E1,1.2329145E1,5.206174E0,6.0028296E0,3.1793408E0,7.9023895E0,3.031738E0],"tree_param":{"num_deleted":"0","num_feature":"22","num_nodes":"25","size_leaf_vector":"1"}},{"base_weights":[-3.179994E-2,6.662968E-2,-5.4630645E-2,1.2780386E-1,-5.386889E-2,1.7705527E-1,-5.2567292E-2,2.0127904E-1,-4.875941E-2,2.3575045E-1,-8.0423735E-2,2.9543852E-2,4.5697386E-3,-2.6760543E-2,2.208611E-2],"categories":[],"categories_nodes":[],"categories_segments":[],"categories_sizes":[],"default_left":[0,0,0,0,0,0,0,0,0,0,0,0,0,0,0],"id":46,"left_children":[1,3,-1,5,-1,7,-1,9,-1,11,13,-1,-1,-1,-1],"loss_changes":[1.1123514E1,6.9068747E0,0E0,5.516877E0,0E0,2.6332746E0,0E0,1.5010967E0,0E0,1.5320272E0,1.039604E0,0E0,0E0,0E0,0E0],"parents":[2147483647,0,0,1,1,3,3,5,5,7,7,9,9,10,10],"right_children":[2,4,-1,6,-1,8,-1,10,-1,12,14,-1,-1,-1,-1],"split_conditions":[1E0,1E0,-5.4630645E-2,1E0,-5.386889E-2,1E0,-5.2567292E-2,8.384228E-1,-4.875941E-2,1.5E-1,5E-2,2.9543852E-2,4.5697386E-3,-2.6760543E-2,2.208611E-2],"split_indices":[1,9,0,11,0,13,0,16,0,18,15,0,0,0,0],"split_type":[0,0,0,0,0,0,0,0,0,0,0,0,0,0,0],"sum_hessian":[2.1792825E2,1.8366249E2,3.426575E1,1.6752145E2,1.6141045E1,1.5645851E2,1.1062947E1,1.516294E2,4.8291135E0,1.3524309E2,1.6386297E1,1.0249805E2,3.274505E1,1.0175973E1,6.2103233E0],"tree_param":{"num_deleted":"0","num_feature":"22","num_nodes":"15","size_leaf_vector":"1"}},{"base_weights":[-3.275385E-2,-4.984952E-1,6.036546E-1,-5.6476235E-2,-2.1100679E-1,6.6268766E-1,-5.876996E-2,-3.2287818E-1,2.2351233E-2,7.276093E-1,4.7991365E-1,-4.3242455E-1,6.251213E-3,7.613634E-2,4.1727054E-1,3.5789746E-1,6.669419E-2,-5.3952314E-2,-1.5865728E-2,3.9018185E-3,7.010592E-2,5.0748503E-1,7.0842453E-3,5.7995494E-2,2.7136227E-2],"categories":[],"categories_nodes":[],"categories_segments":[],"categories_sizes":[],"default_left":[0,0,0,0,0,0,0,0,0,0,0,0,0,0,0,0,0,0,0,0,0,0,0,0,0],"id":47,"left_children":[1,3,5,-1,7,9,-1,11,-1,13,15,17,-1,-1,19,21,-1,-1,-1,-1,-1,23,-1,-1,-1],"loss_changes":[5.9006996E1,2.0700607E0,6.307575E0,0E0,1.1961671E0,6.0775375E-1,0E0,8.2062566E-1,0E0,2.853775E-1,3.1070566E-1,3.4726048E-1,0E0,0E0,8.1638384E-1,6.823392E-1,0E0,0E0,0E0,0E0,0E0,2.8026104E-2,0E0,0E0,0E0],"parents":[2147483647,0,0,1,1,2,2,4,4,5,5,7,7,9,9,10,10,11,11,14,14,15,15,21,21],"right_children":[2,4,6,-1,8,10,-1,12,-1,14,16,18,-1,-1,20,22,-1,-1,-1,-1,-1,24,-1,-1,-1],"split_conditions":[1E0,1E0,1E0,-5.6476235E-2,1E0,1E0,-5.876996E-2,9E-2,2.2351233E-2,9E-2,5E-2,1E0,6.251213E-3,7.613634E-2,1E-1,3E-2,6.669419E-2,-5.3952314E-2,-1.5865728E-2,3.9018185E-3,7.010592E-2,1.2E-1,7.0842453E-3,5.7995494E-2,2.7136227E-2],"split_indices":[1,9,13,0,0,8,0,15,0,15,15,6,0,0,15,15,0,0,0,0,0,18,0,0,0],"split_type":[0,0,0,0,0,0,0,0,0,0,0,0,0,0,0,0,0,0,0,0,0,0,0,0,0],"sum_hessian":[1.9706253E2,1.13913895E2,8.314864E1,9.179121E1,2.2122686E1,7.964584E1,3.5027957E0,1.7797474E1,4.325212E0,5.6570866E1,2.3074982E1,1.3763255E1,4.034219E0,4.9710712E1,6.860151E0,1.5727832E1,7.3471503E0,9.195293E0,4.5679626E0,3.4282463E0,3.4319046E0,9.834869E0,5.892962E0,6.411054E0,3.4238157E0],"tree_param":{"num_deleted":"0","num_feature":"22","num_nodes":"25","size_leaf_vector":"1"}},{"base_weights":[-4.491807E-2,-2.4195887E-1,5.09267E-1,-3.6831766E-1,7.420518E-2,7.4929915E-2,-6.398497E-2,-4.839935E-1,5.4123122E-2,4.3559153E-2,-2.6160097E-1,7.7850126E-2,-5.4540373E-2,4.189944E-1,-5.2863862E-2,-4.4058275E-1,1.0284469E-2,5.0102013E-1,1.4234187E-2,-5.162173E-2,-2.3754768E-2,5.691236E-2,2.7071057E-2],"categories":[],"categories_nodes":[],"categories_segments":[],"categories_sizes":[],"default_left":[0,0,0,0,0,0,0,0,0,0,0,0,0,0,0,0,0,0,0,0,0,0,0],"id":48,"left_children":[1,3,5,7,-1,-1,9,11,13,-1,15,-1,-1,17,-1,19,-1,21,-1,-1,-1,-1,-1],"loss_changes":[2.0832952E1,1.7753746E1,6.9371166E0,6.1470375E0,0E0,0E0,1.6637338E0,8.056034E0,6.1380625E0,0E0,8.1979775E-1,0E0,0E0,3.296492E-1,0E0,2.5596619E-3,0E0,5.347085E-2,0E0,0E0,0E0,0E0,0E0],"parents":[2147483647,0,0,1,1,2,2,3,3,6,6,7,7,8,8,10,10,13,13,15,15,17,17],"right_children":[2,4,6,8,-1,-1,10,12,14,-1,16,-1,-1,18,-1,20,-1,22,-1,-1,-1,-1,-1],"split_conditions":[1E0,1E0,1E0,1E0,7.420518E-2,7.4929915E-2,7.626329E-1,6.0627997E-1,1E0,4.3559153E-2,1E0,7.7850126E-2,-5.4540373E-2,1E0,-5.2863862E-2,7.1462524E-1,1.0284469E-2,6.8204546E-1,1.4234187E-2,-5.162173E-2,-2.3754768E-2,5.691236E-2,2.7071057E-2],"split_indices":[11,13,1,9,0,0,10,10,1,0,9,0,0,6,0,16,0,16,0,0,0,0,0],"split_type":[0,0,0,0,0,0,0,0,0,0,0,0,0,0,0,0,0,0,0,0,0,0,0],"sum_hessian":[1.8865466E2,1.395876E2,4.9067055E1,1.2425719E2,1.5330418E1,3.436897E1,1.4698086E1,9.7431946E1,2.6825243E1,3.824771E0,1.0873315E1,3.9777968E0,9.345415E1,1.6669418E1,1.0155824E1,7.1520047E0,3.7213104E0,1.2231769E1,4.4376507E0,4.08701E0,3.0649946E0,8.304864E0,3.9269047E0],"tree_param":{"num_deleted":"0","num_feature":"22","num_nodes":"23","size_leaf_vector":"1"}},{"base_weights":[7.34905E-2,1.6267404E-1,-3.3231816E-1,1.9424763E-1,-5.067292E-2,1.0626002E-2,-3.940401E-1,-5.3291854E-2,2.1700966E-1,-4.8101446E-1,-2.2324304E-1,2.6486418E-1,-1.0289297E-1,-5.4046046E-2,-3.2953036E-1,2.6283607E-2,-3.7164697E-1,9.615711E-2,3.397017E-1,-3.183685E-1,2.3102309E-1,-1.09197255E-2,-4.795388E-2,-5.1681142E-2,2.6408467E-3,3.257197E-2,-2.8036093E-2,3.704482E-2,-3.2789316E-2,5.3757307E-4,-5.5527806E-2,4.7960944E-2,-1.8374053E-3],"categories":[],"categories_nodes":[],"categories_segments":[],"categories_sizes":[],"default_left":[0,0,0,0,0,0,0,0,0,0,0,0,0,0,0,0,0,0,0,0,0,0,0,0,0,0,0,0,0,0,0,0,0],"id":49,"left_children":[1,3,5,7,-1,-1,9,-1,11,13,15,17,19,-1,21,-1,23,25,27,29,31,-1,-1,-1,-1,-1,-1,-1,-1,-1,-1,-1,-1],"loss_changes":[8.880021E0,4.3382435E0,1.240171E0,3.2983766E0,0E0,0E0,4.7222805E-1,0E0,2.8924952E0,4.691267E-2,1.1819654E0,2.0264292E0,1.8777084E0,0E0,2.6507533E-1,0E0,7.029824E-1,4.5435076E0,2.4322853E0,1.2041423E0,6.544501E-1,0E0,0E0,0E0,0E0,0E0,0E0,0E0,0E0,0E0,0E0,0E0,0E0],"parents":[2147483647,0,0,1,1,2,2,3,3,6,6,8,8,9,9,10,10,11,11,12,12,14,14,16,16,17,17,18,18,19,19,20,20],"right_children":[2,4,6,8,-1,-1,10,-1,12,14,16,18,20,-1,22,-1,24,26,28,30,32,-1,-1,-1,-1,-1,-1,-1,-1,-1,-1,-1,-1],"split_conditions":[1E0,1E0,1E0,6.0627997E-1,-5.067292E-2,1.0626002E-2,8.526788E-1,-5.3291854E-2,1E-1,1E0,8.858068E-1,6.224843E-1,7.513358E-1,-5.4046046E-2,6.3465285E-1,2.6283607E-2,7.884109E-1,5.798072E-1,2.9E-1,6.2444496E-1,7.9950154E-1,-1.09197255E-2,-4.795388E-2,-5.1681142E-2,2.6408467E-3,3.257197E-2,-2.8036093E-2,3.704482E-2,-3.2789316E-2,5.3757307E-4,-5.5527806E-2,4.7960944E-2,-1.8374053E-3],"split_indices":[1,13,17,10,0,0,10,0,15,8,10,16,16,0,16,0,16,16,18,16,16,0,0,0,0,0,0,0,0,0,0,0,0],"split_type":[0,0,0,0,0,0,0,0,0,0,0,0,0,0,0,0,0,0,0,0,0,0,0,0,0,0,0,0,0,0,0,0,0],"sum_hessian":[2.4286868E2,1.9960184E2,4.3266853E1,1.9128917E2,8.312672E0,5.248802E0,3.801805E1,5.125789E0,1.8616338E2,2.3986967E1,1.4031086E1,1.6208847E2,2.407491E1,1.5382667E1,8.6043E0,3.101479E0,1.0929606E1,5.050942E1,1.1157905E2,1.4660848E1,9.414062E0,4.1851187E0,4.419181E0,7.790277E0,3.1393297E0,3.1461994E1,1.9047424E1,1.07091965E2,4.48708E0,6.6080513E0,8.052796E0,4.252405E0,5.161656E0],"tree_param":{"num_deleted":"0","num_feature":"22","num_nodes":"33","size_leaf_vector":"1"}},{"base_weights":[-2.6451448E-2,6.676423E-2,-5.3981017E-2,1.2963995E-1,-5.3439535E-2,1.7312416E-1,-5.133906E-2,-3.8977975E-1,2.0747577E-1,-1.2237216E-2,-5.407244E-2,6.8278915E-1,1.5558232E-1,1.7097473E-2,8.278578E-2,-9.508053E-3,2.7695013E-2],"categories":[],"categories_nodes":[],"categories_segments":[],"categories_sizes":[],"default_left":[0,0,0,0,0,0,0,0,0,0,0,0,0,0,0,0,0],"id":50,"left_children":[1,3,-1,5,-1,7,-1,9,11,-1,-1,13,15,-1,-1,-1,-1],"loss_changes":[1.0078628E1,6.8163614E0,0E0,4.629995E0,0E0,3.036786E0,0E0,3.027382E-1,3.4635396E0,0E0,0E0,8.9425135E-1,4.0352716E0,0E0,0E0,0E0,0E0],"parents":[2147483647,0,0,1,1,3,3,5,5,7,7,8,8,11,11,12,12],"right_children":[2,4,-1,6,-1,8,-1,10,12,-1,-1,14,16,-1,-1,-1,-1],"split_conditions":[1E0,1E0,-5.3981017E-2,1E0,-5.3439535E-2,6.4184093E-1,-5.133906E-2,1E0,6.7939776E-1,-1.2237216E-2,-5.407244E-2,2E-2,7.984904E-1,1.7097473E-2,8.278578E-2,-9.508053E-3,2.7695013E-2],"split_indices":[1,9,0,11,0,10,0,7,10,0,0,15,10,0,0,0,0],"split_type":[0,0,0,0,0,0,0,0,0,0,0,0,0,0,0,0,0],"sum_hessian":[2.0886295E2,1.7750208E2,3.136088E1,1.6140495E2,1.6097113E1,1.5186597E2,9.538995E0,8.139584E0,1.4372638E2,3.5901408E0,4.5494432E0,1.2950439E1,1.3077594E2,3.3411503E0,9.609289E0,4.2733772E1,8.804217E1],"tree_param":{"num_deleted":"0","num_feature":"22","num_nodes":"17","size_leaf_vector":"1"}},{"base_weights":[-4.3898E-2,-4.810804E-1,5.378317E-1,-5.5957306E-2,-1.6100147E-1,6.0105866E-1,3.4507E-1,-2.6504365E-1,2.380193E-2,6.570179E-2,4.4801453E-1,-1.0704603E-2,4.4501975E-1,-6.5366984E-3,-5.3587038E-2,2.0271972E-1,5.946008E-1,1.3645186E-2,5.0568634E-1,-2.625756E-1,4.508666E-2,6.856226E-2,-2.3955198E-2,7.10096E-2,3.5792537E-2,7.25206E-2,3.3227438E-1,-4.637384E-2,-9.306037E-4,4.7028004E-3,4.6870105E-2],"categories":[],"categories_nodes":[],"categories_segments":[],"categories_sizes":[],"default_left":[0,0,0,0,0,0,0,0,0,0,0,0,0,0,0,0,0,0,0,0,0,0,0,0,0,0,0,0,0,0,0],"id":51,"left_children":[1,3,5,-1,7,9,11,13,-1,-1,15,-1,17,19,-1,21,23,-1,25,27,-1,-1,-1,-1,-1,-1,29,-1,-1,-1,-1],"loss_changes":[4.8469032E1,2.6422768E0,7.8964615E-1,0E0,1.0105321E0,2.2167587E-1,1.0668194E0,1.2969438E0,0E0,0E0,5.725751E-1,0E0,2.803917E-1,1.3499478E0,0E0,2.0282595E0,6.151533E-2,0E0,3.387308E-1,3.7137794E-1,0E0,0E0,0E0,0E0,0E0,0E0,3.8085496E-1,0E0,0E0,0E0,0E0],"parents":[2147483647,0,0,1,1,2,2,4,4,5,5,6,6,7,7,10,10,12,12,13,13,15,15,16,16,18,18,19,19,26,26],"right_children":[2,4,6,-1,8,10,12,14,-1,-1,16,-1,18,20,-1,22,24,-1,26,28,-1,-1,-1,-1,-1,-1,30,-1,-1,-1,-1],"split_conditions":[1E0,1E0,1E0,-5.5957306E-2,1E0,1E0,7.470323E-1,6.681342E-1,2.380193E-2,6.570179E-2,6.598144E-1,-1.0704603E-2,5.5745536E-1,9E-2,-5.3587038E-2,5.58148E-1,8.008204E-1,1.3645186E-2,7.0686066E-1,2E-2,4.508666E-2,6.856226E-2,-2.3955198E-2,7.10096E-2,3.5792537E-2,7.25206E-2,7.8115374E-1,-4.637384E-2,-9.306037E-4,4.7028004E-3,4.6870105E-2],"split_indices":[1,9,11,0,0,8,10,16,0,0,16,0,16,18,0,16,16,0,16,18,0,0,0,0,0,0,16,0,0,0,0],"split_type":[0,0,0,0,0,0,0,0,0,0,0,0,0,0,0,0,0,0,0,0,0,0,0,0,0,0,0,0,0,0,0],"sum_hessian":[1.8856396E2,1.0775602E2,8.0807945E1,8.593422E1,2.1821798E1,5.925413E1,2.1553818E1,1.7574993E1,4.246804E0,4.0977913E1,1.8276218E1,3.8893962E0,1.7664421E1,9.516005E0,8.058989E0,7.7277236E0,1.0548494E1,3.4361873E0,1.4228234E1,6.3739986E0,3.1420062E0,3.4311388E0,4.2965846E0,5.744797E0,4.803697E0,4.875027E0,9.353207E0,3.0892847E0,3.284714E0,3.4611683E0,5.892039E0],"tree_param":{"num_deleted":"0","num_feature":"22","num_nodes":"31","size_leaf_vector":"1"}},{"base_weights":[-1.2624939E-2,-1.9469245E-1,4.6998858E-1,-3.3330998E-1,7.123789E-2,7.253831E-2,-1.0869125E-2,-4.4730106E-1,8.221029E-2,-2.203883E-2,8.310119E-2,-4.6370223E-2,-2.9861745E-1,4.6652284E-1,-5.2044887E-2,2.1253732E-1,-2.603181E-2,-4.0911227E-1,8.590533E-4,7.674451E-2,2.2989044E-1,3.980346E-2,-2.5502178E-3,-2.1421792E-2,-4.7227804E-2,4.0281955E-2,-1.5962286E-3],"categories":[],"categories_nodes":[],"categories_segments":[],"categories_sizes":[],"default_left":[0,0,0,0,0,0,0,0,0,0,0,0,0,0,0,0,0,0,0,0,0,0,0,0,0,0,0],"id":52,"left_children":[1,3,5,7,-1,-1,9,11,13,-1,15,-1,17,19,-1,21,-1,23,-1,-1,25,-1,-1,-1,-1,-1,-1],"loss_changes":[1.644854E1,1.7321243E1,6.305958E0,5.65152E0,0E0,0E0,3.8796303E-1,8.874893E-2,6.3488803E0,0E0,6.6375566E-1,0E0,4.1309345E-1,1.0074301E0,0E0,4.7340655E-1,0E0,8.32963E-3,0E0,0E0,4.6280873E-1,0E0,0E0,0E0,0E0,0E0,0E0],"parents":[2147483647,0,0,1,1,2,2,3,3,6,6,7,7,8,8,10,10,12,12,13,13,15,15,17,17,20,20],"right_children":[2,4,6,8,-1,-1,10,12,14,-1,16,-1,18,20,-1,22,-1,24,-1,-1,26,-1,-1,-1,-1,-1,-1],"split_conditions":[1E0,1E0,1E0,1E0,7.123789E-2,7.253831E-2,3E-2,1E0,1E0,-2.203883E-2,1E0,-4.6370223E-2,1.3E-1,2E-2,-5.2044887E-2,3E-2,-2.603181E-2,1E0,8.590533E-4,7.674451E-2,6E-2,3.980346E-2,-2.5502178E-3,-2.1421792E-2,-4.7227804E-2,4.0281955E-2,-1.5962286E-3],"split_indices":[11,13,1,9,0,0,18,0,1,0,8,0,18,15,0,15,0,7,0,0,18,0,0,0,0,0,0],"split_type":[0,0,0,0,0,0,0,0,0,0,0,0,0,0,0,0,0,0,0,0,0,0,0,0,0,0,0],"sum_hessian":[1.8515413E2,1.3487042E2,5.0283714E1,1.1754056E2,1.7329859E1,3.250895E1,1.7774765E1,9.217688E1,2.5363684E1,5.087103E0,1.2687661E1,8.1110886E1,1.1065995E1,1.5625364E1,9.738319E0,9.491421E0,3.196241E0,7.894746E0,3.171249E0,5.8908515E0,9.734513E0,4.9566836E0,4.5347366E0,3.0072885E0,4.8874574E0,5.3399878E0,4.394525E0],"tree_param":{"num_deleted":"0","num_feature":"22","num_nodes":"27","size_leaf_vector":"1"}},{"base_weights":[2.9543636E-2,1.02748E-1,-5.4379787E-2,1.5692511E-1,-5.3578693E-2,4.9465904E-1,1.19689666E-1,6.857406E-3,6.906545E-1,1.3796425E-1,-4.713432E-2,7.7399206E-1,3.258812E-2,2.6455805E-1,6.286514E-2,9.022279E-2,3.9873734E-2,3.312581E-2,-5.986942E-3,-1.3597128E-3,3.463958E-2],"categories":[],"categories_nodes":[],"categories_segments":[],"categories_sizes":[],"default_left":[0,0,0,0,0,0,0,0,0,0,0,0,0,0,0,0,0,0,0,0,0],"id":53,"left_children":[1,3,-1,5,-1,7,9,-1,11,13,-1,15,-1,17,19,-1,-1,-1,-1,-1,-1],"loss_changes":[1.0176697E1,7.5105896E0,0E0,2.4390779E0,0E0,1.5734377E0,2.0119057E0,0E0,1.4852953E-1,1.6529942E0,0E0,1.21661186E-1,0E0,1.4280977E0,2.4228327E0,0E0,0E0,0E0,0E0,0E0,0E0],"parents":[2147483647,0,0,1,1,3,3,5,5,6,6,8,8,9,9,11,11,13,13,14,14],"right_children":[2,4,-1,6,-1,8,10,-1,12,14,-1,16,-1,18,20,-1,-1,-1,-1,-1,-1],"split_conditions":[1E0,1E0,-5.4379787E-2,1E0,-5.3578693E-2,6.3129693E-1,1E0,6.857406E-3,8E-2,2E-2,-4.713432E-2,8.0596346E-1,3.258812E-2,1E0,8.047894E-1,9.022279E-2,3.9873734E-2,3.312581E-2,-5.986942E-3,-1.3597128E-3,3.463958E-2],"split_indices":[9,11,0,17,0,16,13,0,15,15,0,16,0,4,16,0,0,0,0,0,0],"split_type":[0,0,0,0,0,0,0,0,0,0,0,0,0,0,0,0,0,0,0,0,0],"sum_hessian":[2.401379E2,2.1367642E2,2.6461458E1,1.9766002E2,1.6016413E1,1.8408264E1,1.7925175E2,6.225089E0,1.2183174E1,1.7461914E2,4.632606E0,9.004197E0,3.1789777E0,6.407901E1,1.1054014E2,5.664246E0,3.3399506E0,5.313398E1,1.0945032E1,8.781131E1,2.2728827E1],"tree_param":{"num_deleted":"0","num_feature":"22","num_nodes":"21","size_leaf_vector":"1"}},{"base_weights":[-7.704904E-3,7.473028E-2,-5.3385038E-2,1.321569E-1,-5.2761167E-2,1.729673E-1,-5.0580066E-2,1.934146E-1,-4.6701066E-2,3.7664726E-2,2.644158E-1,-1.8119005E-2,9.4644455E-3,2.8923485E-2,-1.8690163E-2],"categories":[],"categories_nodes":[],"categories_segments":[],"categories_sizes":[],"default_left":[0,0,0,0,0,0,0,0,0,0,0,0,0,0,0],"id":54,"left_children":[1,3,-1,5,-1,7,-1,9,-1,11,13,-1,-1,-1,-1],"loss_changes":[9.146521E0,6.3789635E0,0E0,4.4437613E0,0E0,2.157977E0,0E0,1.6910706E0,0E0,6.3232607E-1,1.2356858E0,0E0,0E0,0E0,0E0],"parents":[2147483647,0,0,1,1,3,3,5,5,7,7,9,9,10,10],"right_children":[2,4,-1,6,-1,8,-1,10,-1,12,14,-1,-1,-1,-1],"split_conditions":[1E0,1E0,-5.3385038E-2,1E0,-5.2761167E-2,1E0,-5.0580066E-2,2E-2,-4.6701066E-2,5.842376E-1,1.7E-1,-1.8119005E-2,9.4644455E-3,2.8923485E-2,-1.8690163E-2],"split_indices":[1,9,0,11,0,13,0,15,0,16,15,0,0,0,0],"split_type":[0,0,0,0,0,0,0,0,0,0,0,0,0,0,0],"sum_hessian":[2.0896121E2,1.8139816E2,2.7563051E1,1.6632182E2,1.50763445E1,1.570069E2,9.314921E0,1.5282202E2,4.1848865E0,4.8331463E1,1.0449055E2,9.533628E0,3.8797836E1,9.93843E1,5.106253E0],"tree_param":{"num_deleted":"0","num_feature":"22","num_nodes":"15","size_leaf_vector":"1"}},{"base_weights":[-4.409866E-2,-4.636603E-1,5.239266E-1,-5.5466276E-2,-7.689082E-2,2.1718399E-1,5.559923E-1,-2.4148715E-1,3.0484064E-2,3.1732645E-2,5.4918914E-3,6.0834378E-2,4.0292358E-1,-3.8795146E-1,2.171617E-2,1.6978128E-1,5.300346E-1,-5.2088123E-2,-1.1372298E-2,3.4832716E-2,-9.014418E-3,7.1354106E-2,2.2124192E-2],"categories":[],"categories_nodes":[],"categories_segments":[],"categories_sizes":[],"default_left":[0,0,0,0,0,0,0,0,0,0,0,0,0,0,0,0,0,0,0,0,0,0,0],"id":55,"left_children":[1,3,5,-1,7,9,11,13,-1,-1,-1,-1,15,17,-1,19,21,-1,-1,-1,-1,-1,-1],"loss_changes":[4.3233047E1,3.6277885E0,6.3764E-1,0E0,1.394583E0,1.2781778E-1,3.0913544E-1,1.1085353E0,0E0,0E0,0E0,0E0,5.2014685E-1,3.751428E-1,0E0,4.3680957E-1,5.704427E-1,0E0,0E0,0E0,0E0,0E0,0E0],"parents":[2147483647,0,0,1,1,2,2,4,4,5,5,6,6,7,7,12,12,13,13,15,15,16,16],"right_children":[2,4,6,-1,8,10,12,14,-1,-1,-1,-1,16,18,-1,20,22,-1,-1,-1,-1,-1,-1],"split_conditions":[1E0,1E0,5.25559E-1,-5.5466276E-2,9E-2,5.1065475E-1,1E0,7.952184E-1,3.0484064E-2,3.1732645E-2,5.4918914E-3,6.0834378E-2,6.6346735E-1,8.776776E-1,2.171617E-2,5.893564E-1,7.742293E-1,-5.2088123E-2,-1.1372298E-2,3.4832716E-2,-9.014418E-3,7.1354106E-2,2.2124192E-2],"split_indices":[1,9,16,0,15,16,8,16,0,0,0,0,16,10,0,16,16,0,0,0,0,0,0],"split_type":[0,0,0,0,0,0,0,0,0,0,0,0,0,0,0,0,0,0,0,0,0,0,0],"sum_hessian":[1.7938701E2,1.03282776E2,7.610423E1,8.3258835E1,2.0023945E1,7.938366E0,6.816586E1,1.4247883E1,5.776063E0,4.317934E0,3.6204321E0,4.8577435E1,1.9588428E1,1.0916094E1,3.3317885E0,7.7356615E0,1.1852768E1,6.746396E0,4.1696978E0,4.384081E0,3.3515809E0,6.612443E0,5.2403245E0],"tree_param":{"num_deleted":"0","num_feature":"22","num_nodes":"23","size_leaf_vector":"1"}},{"base_weights":[-1.8226912E-2,-2.006334E-1,4.8334593E-1,-3.3225766E-1,6.95233E-2,6.9623224E-2,6.596362E-2,4.5100442E-1,-3.8993317E-1,4.823721E-2,-1.6191179E-1,5.5993587E-2,2.5046239E-2,-2.7168408E-1,-5.5155944E-2,-3.279402E-1,1.7786441E-2,-1.5419763E-1,-3.8942936E-1,-3.5100896E-3,-4.990944E-2,-1.7498449E-3,-3.7114695E-2,-4.464587E-2,-6.047366E-3],"categories":[],"categories_nodes":[],"categories_segments":[],"categories_sizes":[],"default_left":[0,0,0,0,0,0,0,0,0,0,0,0,0,0,0,0,0,0,0,0,0,0,0,0,0],"id":56,"left_children":[1,3,5,7,-1,-1,9,11,13,-1,15,-1,-1,17,-1,19,-1,21,23,-1,-1,-1,-1,-1,-1],"loss_changes":[1.5822066E1,1.517673E1,4.052986E0,5.198744E0,0E0,0E0,1.661437E0,3.6473513E-2,1.8396807E0,0E0,7.0894265E-1,0E0,0E0,7.988229E-1,0E0,3.8841283E-1,0E0,9.6425873E-1,5.424371E-1,0E0,0E0,0E0,0E0,0E0,0E0],"parents":[2147483647,0,0,1,1,2,2,3,3,6,6,7,7,8,8,10,10,13,13,15,15,17,17,18,18],"right_children":[2,4,6,8,-1,-1,10,12,14,-1,16,-1,-1,18,-1,20,-1,22,24,-1,-1,-1,-1,-1,-1],"split_conditions":[1E0,1E0,1E0,6.0627997E-1,6.95233E-2,6.9623224E-2,7.626329E-1,6.9883054E-1,1E0,4.823721E-2,7.6328963E-1,5.5993587E-2,2.5046239E-2,6.8204546E-1,-5.5155944E-2,5.61153E-1,1.7786441E-2,5E-2,1E0,-3.5100896E-3,-4.990944E-2,-1.7498449E-3,-3.7114695E-2,-4.464587E-2,-6.047366E-3],"split_indices":[11,13,1,10,0,0,10,16,7,0,16,0,0,16,0,16,0,15,4,0,0,0,0,0,0],"split_type":[0,0,0,0,0,0,0,0,0,0,0,0,0,0,0,0,0,0,0,0,0,0,0,0,0],"sum_hessian":[1.7087744E2,1.257471E2,4.5130333E1,1.10187096E2,1.5560007E1,2.9444193E1,1.568614E1,7.089429E0,1.03097664E2,5.152991E0,1.0533149E1,3.4327166E0,3.6567123E0,6.108649E1,4.2011177E1,7.099084E0,3.4340649E0,3.1732914E1,2.9353575E1,3.0631745E0,4.0359097E0,2.0129824E1,1.1603091E1,2.471216E1,4.6414146E0],"tree_param":{"num_deleted":"0","num_feature":"22","num_nodes":"25","size_leaf_vector":"1"}},{"base_weights":[3.8036153E-2,1.0451252E-1,-5.3807944E-2,-2.8221446E-1,1.5243615E-1,-1.3489877E-1,-5.776446E-2,2.0080675E-1,-1.789799E-1,-5.478694E-2,1.211209E-1,2.1768905E-1,-4.429513E-2,3.839397E-2,-2.8615415E-1,2.5081912E-1,-1.6082063E-2,1.6532017E-1,4.4385588E-1,-4.5922178E-1,-2.8186396E-2,7.804349E-3,3.5748E-2,1.9525593E-2,-2.0419551E-2,5.2576806E-2,-1.15856975E-2,-2.1165801E-2,-5.1743727E-2,3.9623167E-2,-3.33945E-2],"categories":[],"categories_nodes":[],"categories_segments":[],"categories_sizes":[],"default_left":[0,0,0,0,0,0,0,0,0,0,0,0,0,0,0,0,0,0,0,0,0,0,0,0,0,0,0,0,0,0,0],"id":57,"left_children":[1,3,-1,5,7,9,-1,11,13,-1,15,17,-1,-1,19,21,-1,23,25,27,29,-1,-1,-1,-1,-1,-1,-1,-1,-1,-1],"loss_changes":[9.215312E0,4.0323133E0,0E0,9.702325E-1,3.116509E0,1.9033849E0,0E0,1.9240332E0,1.6183357E0,0E0,4.6249068E-1,1.8753967E0,0E0,0E0,9.5039713E-1,1.2501657E-1,0E0,1.5353484E0,1.451994E0,7.565093E-2,1.3948542E0,0E0,0E0,0E0,0E0,0E0,0E0,0E0,0E0,0E0,0E0],"parents":[2147483647,0,0,1,1,3,3,4,4,5,5,7,7,8,8,10,10,11,11,14,14,15,15,17,17,18,18,19,19,20,20],"right_children":[2,4,-1,6,8,10,-1,12,14,-1,16,18,-1,-1,20,22,-1,24,26,28,30,-1,-1,-1,-1,-1,-1,-1,-1,-1,-1],"split_conditions":[1E0,6.6698456E-1,-5.3807944E-2,6.508952E-1,1E0,6.1449695E-1,-5.776446E-2,1E0,1E0,-5.478694E-2,6.4184093E-1,8.1335074E-1,-4.429513E-2,3.839397E-2,8.526788E-1,6.528693E-1,-1.6082063E-2,7.952184E-1,1E0,7.342286E-1,5E-2,7.804349E-3,3.5748E-2,1.9525593E-2,-2.0419551E-2,5.2576806E-2,-1.15856975E-2,-2.1165801E-2,-5.1743727E-2,3.9623167E-2,-3.33945E-2],"split_indices":[9,10,0,10,1,10,0,13,17,0,10,16,0,0,10,16,0,16,0,10,18,0,0,0,0,0,0,0,0,0,0],"split_type":[0,0,0,0,0,0,0,0,0,0,0,0,0,0,0,0,0,0,0,0,0,0,0,0,0,0,0,0,0,0,0],"sum_hessian":[2.3815237E2,2.1424933E2,2.390304E1,2.3083635E1,1.911657E2,1.6374926E1,6.7087092E0,1.6716225E2,2.4003447E1,5.8303585E0,1.0544567E1,1.6353545E2,3.6268075E0,3.4260654E0,2.0577381E1,7.2978225E0,3.2467442E0,1.3419385E2,2.9341595E1,1.1848323E1,8.729057E0,3.4465666E0,3.851256E0,1.2457332E2,9.620531E0,2.5648645E1,3.692949E0,3.1383073E0,8.710016E0,3.5313528E0,5.1977043E0],"tree_param":{"num_deleted":"0","num_feature":"22","num_nodes":"31","size_leaf_vector":"1"}},{"base_weights":[-4.2585503E-2,3.527189E-2,-5.289122E-2,-3.2982028E-1,7.681457E-2,-5.913919E-4,-4.3415773E-1,-3.1790948E-1,1.1434868E-1,-5.401215E-2,-1.0837518E-2,-5.3237427E-2,